{"learner":{"attributes":{"scikit_learn":"{\"_estimator_type\": \"regressor\"}"},"feature_names":["hour","dayofweek","day","month","is_weekend","lag_1","lag_24","lag_168","rolling_24","rolling_168"],"feature_types":["int","int","int","int","int","float","float","float","float","float"],"gradient_booster":{"model":{"cats":{"enc":[],"feature_segments":[],"sorted_idx":[]},"gbtree_model_param":{"num_parallel_tree":"1","num_trees":"400"},"iteration_indptr":[0,1,2,3,4,5,6,7,8,9,10,11,12,13,14,15,16,17,18,19,20,21,22,23,24,25,26,27,28,29,30,31,32,33,34,35,36,37,38,39,40,41,42,43,44,45,46,47,48,49,50,51,52,53,54,55,56,57,58,59,60,61,62,63,64,65,66,67,68,69,70,71,72,73,74,75,76,77,78,79,80,81,82,83,84,85,86,87,88,89,90,91,92,93,94,95,96,97,98,99,100,101,102,103,104,105,106,107,108,109,110,111,112,113,114,115,116,117,118,119,120,121,122,123,124,125,126,127,128,129,130,131,132,133,134,135,136,137,138,139,140,141,142,143,144,145,146,147,148,149,150,151,152,153,154,155,156,157,158,159,160,161,162,163,164,165,166,167,168,169,170,171,172,173,174,175,176,177,178,179,180,181,182,183,184,185,186,187,188,189,190,191,192,193,194,195,196,197,198,199,200,201,202,203,204,205,206,207,208,209,210,211,212,213,214,215,216,217,218,219,220,221,222,223,224,225,226,227,228,229,230,231,232,233,234,235,236,237,238,239,240,241,242,243,244,245,246,247,248,249,250,251,252,253,254,255,256,257,258,259,260,261,262,263,264,265,266,267,268,269,270,271,272,273,274,275,276,277,278,279,280,281,282,283,284,285,286,287,288,289,290,291,292,293,294,295,296,297,298,299,300,301,302,303,304,305,306,307,308,309,310,311,312,313,314,315,316,317,318,319,320,321,322,323,324,325,326,327,328,329,330,331,332,333,334,335,336,337,338,339,340,341,342,343,344,345,346,347,348,349,350,351,352,353,354,355,356,357,358,359,360,361,362,363,364,365,366,367,368,369,370,371,372,373,374,375,376,377,378,379,380,381,382,383,384,385,386,387,388,389,390,391,392,393,394,395,396,397,398,399,400],"tree_info":[0,0,0,0,0,0,0,0,0,0,0,0,0,0,0,0,0,0,0,0,0,0,0,0,0,0,0,0,0,0,0,0,0,0,0,0,0,0,0,0,0,0,0,0,0,0,0,0,0,0,0,0,0,0,0,0,0,0,0,0,0,0,0,0,0,0,0,0,0,0,0,0,0,0,0,0,0,0,0,0,0,0,0,0,0,0,0,0,0,0,0,0,0,0,0,0,0,0,0,0,0,0,0,0,0,0,0,0,0,0,0,0,0,0,0,0,0,0,0,0,0,0,0,0,0,0,0,0,0,0,0,0,0,0,0,0,0,0,0,0,0,0,0,0,0,0,0,0,0,0,0,0,0,0,0,0,0,0,0,0,0,0,0,0,0,0,0,0,0,0,0,0,0,0,0,0,0,0,0,0,0,0,0,0,0,0,0,0,0,0,0,0,0,0,0,0,0,0,0,0,0,0,0,0,0,0,0,0,0,0,0,0,0,0,0,0,0,0,0,0,0,0,0,0,0,0,0,0,0,0,0,0,0,0,0,0,0,0,0,0,0,0,0,0,0,0,0,0,0,0,0,0,0,0,0,0,0,0,0,0,0,0,0,0,0,0,0,0,0,0,0,0,0,0,0,0,0,0,0,0,0,0,0,0,0,0,0,0,0,0,0,0,0,0,0,0,0,0,0,0,0,0,0,0,0,0,0,0,0,0,0,0,0,0,0,0,0,0,0,0,0,0,0,0,0,0,0,0,0,0,0,0,0,0,0,0,0,0,0,0,0,0,0,0,0,0,0,0,0,0,0,0,0,0,0,0,0,0,0,0,0,0,0,0,0,0,0,0,0,0,0,0,0,0,0,0,0,0,0,0,0,0,0,0,0,0,0,0,0,0,0,0,0,0,0,0,0,0,0,0],"trees":[{"base_weights":[1.8784727E-3,-2.0242293E-1,2.3860981E0,-2.201142E-1,2.2106858E-1,1.633596E0,3.3125474E0,-2.2709529E-1,-2.0418578E-1,6.644082E-1,1.4977016E-2,1.5374053E0,2.0717468E0,3.2013621E0,2.899272E-1,-1.1524128E-2,-2.1941073E-1,-2.0731278E-1,-1.3578308E-1,4.9483457E-1,8.957024E-1,4.9362862E-1,-7.065712E-2,1.4387501E0,1.7397977E0,1.9370823E0,2.4871347E0,2.9158177E0,3.4346943E0,-2.1135901E-1,-2.3076348E-1,-2.0420603E-1,-2.218642E-1,-1.80957E-1,-3.2490645E-2,2.392187E0,4.5283362E-1,8.0621696E-1,1.0256828E0,1.2147789E-1,2.686046E-2,1.4491322E-2,-1.0389947E-1,9.256859E-1,1.4662029E0,1.5816383E-1,1.7478731E0,2.121888E-1,1.9146492E0,1.1887945E-3,2.5145457E0,5.436473E0,2.8883305E0,3.3874848E0,2.0666292E-1,-1.0731581E-2,-9.971037E-3,-1.1562342E-2,-1.005542E-2,-9.499032E-3,-1.0438613E-2,-1.1406406E-2,-8.369728E-3,-1.1567588E-2,-6.2331758E-3,1.3675338E-3,-1.1345687E-2,1.5920208E-1,1.3751726E-2,1.9069789E-2,5.021874E-2,4.1465245E-2,-9.979291E-4,3.811815E-2,5.9772637E-2,2.553983E-2,-1.0653877E-2,-2.3709596E-3,-9.856234E-3,2.5981668E-2,6.283707E-2,5.64512E-2,7.412397E-2,1.9188795E-2,-2.248274E-3,8.6451024E-2,1.3633564E-1,2.2314658E-2,9.693377E-2,1.1643648E-1,1.5195872E-1,7.54388E-2,2.9198134E-1,7.80739E-2,1.4613189E-1,1.6973044E-1,9.056466E-2],"categories":[],"categories_nodes":[],"categories_segments":[],"categories_sizes":[],"default_left":[0,0,0,0,0,0,0,0,0,0,0,0,0,0,0,0,0,0,0,0,0,0,0,0,0,0,0,0,0,0,0,0,0,0,0,0,0,0,0,0,0,0,0,0,0,0,0,0,0,0,0,0,0,0,0,0,0,0,0,0,0,0,0,0,0,0,0,0,0,0,0,0,0,0,0,0,0,0,0,0,0,0,0,0,0,0,0,0,0,0,0,0,0,0,0,0,0],"id":0,"left_children":[1,3,5,7,9,11,13,15,17,19,21,23,25,27,-1,-1,29,31,33,35,37,39,41,43,45,47,49,51,53,55,57,59,61,63,65,67,69,71,73,75,-1,-1,77,79,81,83,85,-1,87,-1,89,91,93,95,-1,-1,-1,-1,-1,-1,-1,-1,-1,-1,-1,-1,-1,-1,-1,-1,-1,-1,-1,-1,-1,-1,-1,-1,-1,-1,-1,-1,-1,-1,-1,-1,-1,-1,-1,-1,-1,-1,-1,-1,-1,-1,-1],"loss_changes":[2.3890271E4,3.3850452E2,2.6932754E3,4.775635E0,1.6554988E2,8.692285E1,4.6072852E2,7.3413086E-1,2.800415E0,2.2109085E1,5.0779156E1,3.25791E1,1.6550537E1,1.007168E2,0E0,0E0,7.96051E-1,5.262451E-1,2.7051392E0,2.5533394E1,1.987854E0,2.9838295E0,1.2624583E1,1.5361572E1,7.0163574E0,7.036255E0,6.017334E0,3.653955E1,1.59765625E1,1.6889954E-1,8.300781E-3,6.380005E-1,7.168808E-1,1.1172657E0,2.0771534E0,1.0859615E1,1.2540436E1,2.8395996E0,3.335495E0,2.8440619E0,0E0,0E0,5.061219E0,7.8157883E0,4.5004883E0,2.0057034E-1,5.767212E0,0E0,9.436279E0,0E0,1.5987549E0,2.2735596E0,2.9485352E1,3.4746094E0,0E0,0E0,0E0,0E0,0E0,0E0,0E0,0E0,0E0,0E0,0E0,0E0,0E0,0E0,0E0,0E0,0E0,0E0,0E0,0E0,0E0,0E0,0E0,0E0,0E0,0E0,0E0,0E0,0E0,0E0,0E0,0E0,0E0,0E0,0E0,0E0,0E0,0E0,0E0,0E0,0E0,0E0,0E0],"parents":[2147483647,0,0,1,1,2,2,3,3,4,4,5,5,6,6,7,7,8,8,9,9,10,10,11,11,12,12,13,13,16,16,17,17,18,18,19,19,20,20,21,21,22,22,23,23,24,24,25,25,26,26,27,27,28,28,29,29,30,30,31,31,32,32,33,33,34,34,35,35,36,36,37,37,38,38,39,39,42,42,43,43,44,44,45,45,46,46,48,48,50,50,51,51,52,52,53,53],"right_children":[2,4,6,8,10,12,14,16,18,20,22,24,26,28,-1,-1,30,32,34,36,38,40,42,44,46,48,50,52,54,56,58,60,62,64,66,68,70,72,74,76,-1,-1,78,80,82,84,86,-1,88,-1,90,92,94,96,-1,-1,-1,-1,-1,-1,-1,-1,-1,-1,-1,-1,-1,-1,-1,-1,-1,-1,-1,-1,-1,-1,-1,-1,-1,-1,-1,-1,-1,-1,-1,-1,-1,-1,-1,-1,-1,-1,-1,-1,-1,-1,-1],"split_conditions":[1.26E0,5E-2,2.75E0,2.6964286E-2,6E0,2.12E0,5.68E0,6.25E-3,3.4291667E-1,1E0,2.7E-1,1.83625E0,2.09375E0,3.375E0,2.899272E-1,-1.1524128E-2,1.1666667E-2,1.3690476E-1,5E0,5.952381E-3,1.46E0,2.2E-1,2.1666666E-2,8.333333E-1,3.690476E-1,1.3571428E-2,2E0,2.0833333E-1,4.29E0,1.9523809E-2,8.3333336E-2,3.25E-2,4.083333E-2,4.8E-1,1.3E1,1.8E1,1.55E0,1.27E0,1.4166666E0,9.166666E-3,2.686046E-2,1.4491322E-2,7.7E-1,1.7E1,1.29E0,2E0,4.03E0,2.121888E-1,6.0833335E-2,1.1887945E-3,3.25E0,7E0,7.083333E-1,4E0,2.0666292E-1,-1.0731581E-2,-9.971037E-3,-1.1562342E-2,-1.005542E-2,-9.499032E-3,-1.0438613E-2,-1.1406406E-2,-8.369728E-3,-1.1567588E-2,-6.2331758E-3,1.3675338E-3,-1.1345687E-2,1.5920208E-1,1.3751726E-2,1.9069789E-2,5.021874E-2,4.1465245E-2,-9.979291E-4,3.811815E-2,5.9772637E-2,2.553983E-2,-1.0653877E-2,-2.3709596E-3,-9.856234E-3,2.5981668E-2,6.283707E-2,5.64512E-2,7.412397E-2,1.9188795E-2,-2.248274E-3,8.6451024E-2,1.3633564E-1,2.2314658E-2,9.693377E-2,1.1643648E-1,1.5195872E-1,7.54388E-2,2.9198134E-1,7.80739E-2,1.4613189E-1,1.6973044E-1,9.056466E-2],"split_indices":[5,5,5,9,3,5,5,9,8,5,5,8,9,8,0,0,8,9,3,9,6,5,8,8,9,9,2,8,5,9,8,8,8,6,2,2,6,6,8,8,0,0,5,2,5,1,6,0,9,0,6,2,8,3,0,0,0,0,0,0,0,0,0,0,0,0,0,0,0,0,0,0,0,0,0,0,0,0,0,0,0,0,0,0,0,0,0,0,0,0,0,0,0,0,0,0,0],"split_type":[0,0,0,0,0,0,0,0,0,0,0,0,0,0,0,0,0,0,0,0,0,0,0,0,0,0,0,0,0,0,0,0,0,0,0,0,0,0,0,0,0,0,0,0,0,0,0,0,0,0,0,0,0,0,0,0,0,0,0,0,0,0,0,0,0,0,0,0,0,0,0,0,0,0,0,0,0,0,0,0,0,0,0,0,0,0,0,0,0,0,0,0,0,0,0,0,0],"sum_hessian":[4.9044E4,4.5174E4,3.87E3,4.3363E4,1.811E3,2.137E3,1.733E3,3.014E4,1.3223E4,5.74E2,1.237E3,1.756E3,3.81E2,1.661E3,7.2E1,2.0899E4,9.241E3,1.2643E4,5.8E2,3.33E2,2.41E2,1.87E2,1.05E3,1.186E3,5.7E2,2.92E2,8.9E1,7.53E2,9.08E2,5.418E3,3.823E3,1.0431E4,2.212E3,4.03E2,1.77E2,6E0,3.27E2,1.47E2,9.4E1,2E1,1.67E2,8.8E1,9.62E2,6.2E1,1.124E3,3E0,5.67E2,1E0,2.91E2,1E0,8.8E1,6E0,7.47E2,8.56E2,5.2E1,4.239E3,1.179E3,3.755E3,6.8E1,2.545E3,7.886E3,1.981E3,2.31E2,2.11E2,1.92E2,1.36E2,4.1E1,4E0,2E0,2.91E2,3.6E1,1.43E2,4E0,3.9E1,5.5E1,9E0,1.1E1,6E2,3.62E2,2.9E1,3.3E1,5.5E1,1.069E3,1E0,2E0,5.59E2,8E0,5E0,2.86E2,6.9E1,1.9E1,1E0,5E0,2E1,7.27E2,8.51E2,5E0],"tree_param":{"num_deleted":"0","num_feature":"10","num_nodes":"97","size_leaf_vector":"1"}},{"base_weights":[1.7182968E-3,-1.9290043E-1,2.2613883E0,-2.090914E-1,1.9682749E-1,1.5610753E0,3.140025E0,-2.1671276E-1,-1.9608204E-1,3.0458096E-2,6.7762315E-1,1.4691365E0,1.9742203E0,3.0352976E0,5.545827E0,-1.09520955E-2,-2.090601E-1,-1.9837336E-1,-1.3217631E-1,4.6844396E-1,-4.377101E-2,4.9814406E-1,8.5727674E-1,1.3610818E0,1.635151E0,1.8468844E0,2.3489277E0,2.7685657E0,3.257758E0,2.1818209E-1,2.977536E-1,-2.0393209E-1,-2.1857591E-1,-1.9589809E-1,-2.1441334E-1,-1.4352664E-1,1.3906956E-1,1.3747346E-1,2.5815371E-2,8.5961694E-1,-6.2136065E-2,4.0010303E-1,8.621345E-1,7.77379E-1,1.013099E0,1.1731143E0,1.4133031E0,1.6183087E0,3.0665543E0,1.6117877E-1,1.8266919E0,9.375753E-1,1.18449114E-1,5.9807324E0,2.7394488E0,3.2116146E0,1.9099134E-1,-1.0204706E-2,-7.751956E-3,-1.0979901E-2,-7.997744E-3,-9.139151E-3,-1.0056065E-2,-1.0918892E-2,-8.972367E-3,-9.57237E-3,-4.9010008E-3,1.4254073E-2,-8.516897E-3,2.4869174E-2,-7.9809725E-3,1.9895875E-1,2.684736E-2,1.2739641E-2,-4.829913E-3,1.5264218E-2,3.1399224E-2,3.6346458E-2,9.532779E-2,3.9204832E-2,-6.7641595E-3,6.0012307E-2,3.824619E-2,5.7719972E-2,1.420857E-1,5.192055E-2,7.1010366E-2,-2.1733316E-3,8.115942E-2,1.7543449E-1,6.5373875E-2,2.722989E-2,9.2567004E-2,1.1590746E-3,6.9159076E-2,7.3552825E-2,3.2942283E-1,1.3222973E-1,1.7243904E-1,8.507948E-2,1.6084084E-1],"categories":[],"categories_nodes":[],"categories_segments":[],"categories_sizes":[],"default_left":[0,0,0,0,0,0,0,0,0,0,0,0,0,0,0,0,0,0,0,0,0,0,0,0,0,0,0,0,0,0,0,0,0,0,0,0,0,0,0,0,0,0,0,0,0,0,0,0,0,0,0,0,0,0,0,0,0,0,0,0,0,0,0,0,0,0,0,0,0,0,0,0,0,0,0,0,0,0,0,0,0,0,0,0,0,0,0,0,0,0,0,0,0,0,0,0,0,0,0,0,0],"id":1,"left_children":[1,3,5,7,9,11,13,15,17,19,21,23,25,27,29,-1,31,33,35,37,39,41,43,45,47,49,51,53,55,-1,-1,57,59,61,63,65,67,69,-1,71,73,75,77,79,81,83,85,87,89,-1,91,93,-1,95,97,99,-1,-1,-1,-1,-1,-1,-1,-1,-1,-1,-1,-1,-1,-1,-1,-1,-1,-1,-1,-1,-1,-1,-1,-1,-1,-1,-1,-1,-1,-1,-1,-1,-1,-1,-1,-1,-1,-1,-1,-1,-1,-1,-1,-1,-1],"loss_changes":[2.1656674E4,2.8613965E2,2.3979258E3,4.2736816E0,1.446807E2,7.971484E1,4.1929492E2,4.4335938E-1,2.3301392E0,4.37482E1,1.4566452E1,2.9759277E1,1.441333E1,8.954004E1,8.364258E0,0E0,2.689209E-1,5.7470703E-1,1.7440481E0,3.018093E0,1.9149391E1,8.041275E0,2.0883484E0,9.001953E0,1.1865112E1,2.3955078E0,4.9609375E-1,5.4884766E1,1.1075195E1,0E0,0E0,1.5411377E-3,9.8854065E-2,8.858032E-1,2.4720764E-1,1.1544571E0,1.0876353E0,2.8594866E0,0E0,2.1014893E1,1.2355621E1,3.8488693E0,5.5334244E0,1.0686264E0,2.5653E0,4.276642E0,7.1240234E-1,5.6817627E0,8.5672E-1,0E0,8.345764E0,1.1903143E0,0E0,6.751831E0,4.18125E1,1.1083984E0,0E0,0E0,0E0,0E0,0E0,0E0,0E0,0E0,0E0,0E0,0E0,0E0,0E0,0E0,0E0,0E0,0E0,0E0,0E0,0E0,0E0,0E0,0E0,0E0,0E0,0E0,0E0,0E0,0E0,0E0,0E0,0E0,0E0,0E0,0E0,0E0,0E0,0E0,0E0,0E0,0E0,0E0,0E0,0E0,0E0],"parents":[2147483647,0,0,1,1,2,2,3,3,4,4,5,5,6,6,7,7,8,8,9,9,10,10,11,11,12,12,13,13,14,14,16,16,17,17,18,18,19,19,20,20,21,21,22,22,23,23,24,24,25,25,26,26,27,27,28,28,31,31,32,32,33,33,34,34,35,35,36,36,37,37,39,39,40,40,41,41,42,42,43,43,44,44,45,45,46,46,47,47,48,48,50,50,51,51,53,53,54,54,55,55],"right_children":[2,4,6,8,10,12,14,16,18,20,22,24,26,28,30,-1,32,34,36,38,40,42,44,46,48,50,52,54,56,-1,-1,58,60,62,64,66,68,70,-1,72,74,76,78,80,82,84,86,88,90,-1,92,94,-1,96,98,100,-1,-1,-1,-1,-1,-1,-1,-1,-1,-1,-1,-1,-1,-1,-1,-1,-1,-1,-1,-1,-1,-1,-1,-1,-1,-1,-1,-1,-1,-1,-1,-1,-1,-1,-1,-1,-1,-1,-1,-1,-1,-1,-1,-1,-1],"split_conditions":[1.26E0,5E-2,2.75E0,2.3809524E-2,2.6958334E-1,2.12E0,5.68E0,1.1904762E-2,4.1666666E-1,2.7E-1,1E0,1.79625E0,2.09375E0,3.375E0,6.15E0,-1.09520955E-2,1.25E-3,1.489881E-1,2E-2,2.2E-1,5E0,5E0,1.4583334E0,1.5116667E0,4.51E0,1.3571428E-2,2E0,2.0833333E-1,4.04E0,2.1818209E-1,2.977536E-1,9.8E-1,5.0833333E-2,4.083333E-2,4.083333E-2,3E-2,1E0,9.166666E-3,2.5815371E-2,3E0,3E-2,1.25E0,9.5E-1,2.23E0,1.7829167E0,4.75E0,1.27E0,3.690476E-1,1.2E1,1.6117877E-1,1.9863096E-1,2.27E0,1.18449114E-1,7E0,4E0,2E0,1.9099134E-1,-1.0204706E-2,-7.751956E-3,-1.0979901E-2,-7.997744E-3,-9.139151E-3,-1.0056065E-2,-1.0918892E-2,-8.972367E-3,-9.57237E-3,-4.9010008E-3,1.4254073E-2,-8.516897E-3,2.4869174E-2,-7.9809725E-3,1.9895875E-1,2.684736E-2,1.2739641E-2,-4.829913E-3,1.5264218E-2,3.1399224E-2,3.6346458E-2,9.532779E-2,3.9204832E-2,-6.7641595E-3,6.0012307E-2,3.824619E-2,5.7719972E-2,1.420857E-1,5.192055E-2,7.1010366E-2,-2.1733316E-3,8.115942E-2,1.7543449E-1,6.5373875E-2,2.722989E-2,9.2567004E-2,1.1590746E-3,6.9159076E-2,7.3552825E-2,3.2942283E-1,1.3222973E-1,1.7243904E-1,8.507948E-2,1.6084084E-1],"split_indices":[5,5,5,9,8,5,5,9,8,5,5,8,9,8,5,0,8,9,5,5,3,3,8,8,6,9,2,8,5,0,0,7,8,8,8,6,8,8,0,2,8,6,5,6,8,6,5,9,2,0,9,5,0,2,5,2,0,0,0,0,0,0,0,0,0,0,0,0,0,0,0,0,0,0,0,0,0,0,0,0,0,0,0,0,0,0,0,0,0,0,0,0,0,0,0,0,0,0,0,0,0],"split_type":[0,0,0,0,0,0,0,0,0,0,0,0,0,0,0,0,0,0,0,0,0,0,0,0,0,0,0,0,0,0,0,0,0,0,0,0,0,0,0,0,0,0,0,0,0,0,0,0,0,0,0,0,0,0,0,0,0,0,0,0,0,0,0,0,0,0,0,0,0,0,0,0,0,0,0,0,0,0,0,0,0,0,0,0,0,0,0,0,0,0,0,0,0,0,0,0,0,0,0,0,0],"sum_hessian":[4.9243E4,4.5339E4,3.904E3,4.3531E4,1.808E3,2.174E3,1.73E3,2.744E4,1.6091E4,1.344E3,4.64E2,1.782E3,3.92E2,1.66E3,7E1,2.1016E4,6.424E3,1.5532E4,5.59E2,1.94E2,1.15E3,2.34E2,2.3E2,1.085E3,6.97E2,2.97E2,9.5E1,7.61E2,8.99E2,2.1E1,4.9E1,4.189E3,2.235E3,1.3467E4,2.065E3,5.37E2,2.2E1,2.5E1,1.69E2,2.2E1,1.128E3,1.86E2,4.8E1,1.56E2,7.4E1,2.41E2,8.44E2,6.91E2,6E0,2E0,2.95E2,2E0,9.3E1,5E0,7.56E2,8.37E2,6.2E1,4.172E3,1.7E1,2.194E3,4.1E1,3.846E3,9.621E3,1.85E3,2.15E2,2.6E2,2.77E2,1.5E1,7E0,1.1E1,1.4E1,1E0,2.1E1,1.1E2,1.018E3,1.33E2,5.3E1,4.4E1,4E0,1.55E2,1E0,4E1,3.4E1,2.4E2,1E0,1.8E1,8.26E2,2E0,6.89E2,4E0,2E0,6E0,2.89E2,1E0,1E0,1E0,4E0,6.71E2,8.5E1,4E0,8.33E2],"tree_param":{"num_deleted":"0","num_feature":"10","num_nodes":"101","size_leaf_vector":"1"}},{"base_weights":[2.2830146E-3,-1.8299298E-1,2.1474638E0,-1.9874352E-1,1.9642226E-1,1.4806368E0,2.980049E0,-2.0479779E-1,-1.85043E-1,6.042062E-1,4.6569942E-3,1.3755757E0,1.7879705E0,2.8751893E0,5.2339535E0,-2.0768675E-1,-1.9818398E-1,-1.8907958E-1,-1.5480885E-1,4.5328027E-1,8.0401295E-1,4.4601882E-1,-6.668282E-2,1.3441669E0,1.7444277E0,1.7370548E0,2.5578861E0,2.6269214E0,3.0860415E0,2.3294282E-1,3.0267236E-1,-1.0419134E-2,-2.0437092E-1,-1.9078457E-1,-2.0844516E-1,-1.8577059E-1,-2.046202E-1,-1.6068019E-1,4.373509E-3,1.982987E0,4.1411072E-1,7.091188E-1,9.561812E-1,1.7685129E-1,2.4228737E-2,1.5902859E-1,-1.1221057E-1,1.1143368E0,1.3995075E0,5.135273E-1,1.7707019E0,-4.4506653E-3,1.7407519E0,9.72456E-1,1.3441816E-1,2.880492E-1,2.5947678E0,3.0384948E0,1.8272224E-1,-5.6535954E-4,-1.0255205E-2,-9.729805E-3,-8.847091E-3,-1.04458425E-2,-7.1913335E-3,-8.503663E-3,-9.569831E-3,-1.0284884E-2,-8.480597E-3,-8.75965E-3,-6.5552713E-3,-3.2228746E-3,1.49036E-2,1.5063791E-1,1.00013185E-2,3.138904E-2,1.1766322E-2,3.6485776E-2,-2.942355E-3,3.7000343E-2,5.614838E-2,2.3868129E-2,-9.71879E-3,1.3081084E-2,2.4355713E-3,-1.0574596E-2,-1.5541891E-3,2.9371608E-2,5.6920607E-2,6.954238E-2,1.4491296E-1,3.1767637E-2,3.701275E-3,8.0080114E-2,9.82142E-2,8.29509E-2,9.3223415E-2,6.766471E-2,-4.2514666E-3,1.256266E-1,1.5913543E-1,1.5224181E-1,9.289774E-2],"categories":[],"categories_nodes":[],"categories_segments":[],"categories_sizes":[],"default_left":[0,0,0,0,0,0,0,0,0,0,0,0,0,0,0,0,0,0,0,0,0,0,0,0,0,0,0,0,0,0,0,0,0,0,0,0,0,0,0,0,0,0,0,0,0,0,0,0,0,0,0,0,0,0,0,0,0,0,0,0,0,0,0,0,0,0,0,0,0,0,0,0,0,0,0,0,0,0,0,0,0,0,0,0,0,0,0,0,0,0,0,0,0,0,0,0,0,0,0,0,0,0,0],"id":2,"left_children":[1,3,5,7,9,11,13,15,17,19,21,23,25,27,29,31,33,35,37,39,41,43,45,47,49,51,53,55,57,-1,-1,-1,59,61,63,65,67,69,71,73,75,77,79,81,-1,83,85,87,89,91,93,-1,95,97,-1,-1,99,101,-1,-1,-1,-1,-1,-1,-1,-1,-1,-1,-1,-1,-1,-1,-1,-1,-1,-1,-1,-1,-1,-1,-1,-1,-1,-1,-1,-1,-1,-1,-1,-1,-1,-1,-1,-1,-1,-1,-1,-1,-1,-1,-1,-1,-1],"loss_changes":[1.9537072E4,2.7044092E2,2.1652715E3,3.565796E0,1.4106781E2,6.7671875E1,3.9548047E2,5.3430176E-1,1.5969543E0,1.7035553E1,3.8695374E1,1.6458008E1,1.711731E1,7.889453E1,7.615967E0,5.7373047E-3,6.571655E-1,5.6625366E-1,1.4727211E0,1.9011658E1,2.8886108E0,1.6889381E0,1.0889992E1,1.7519043E1,3.1009521E0,3.6588135E0,4.0052795E0,6.2645508E1,1.3030273E1,0E0,0E0,0E0,5.193176E-1,2.4757385E-1,8.683777E-2,8.240051E-1,4.2556763E-2,6.2900543E-1,1.1715E0,1.4085701E1,1.222934E1,2.5104828E0,2.4860458E0,2.6586199E0,0E0,2.0018206E0,7.0893326E0,3.0861511E0,1.1608643E1,1.6713762E-1,8.148804E-1,0E0,2.1446533E0,1.7259929E0,0E0,0E0,2.8942871E1,5.5615234E-1,0E0,0E0,0E0,0E0,0E0,0E0,0E0,0E0,0E0,0E0,0E0,0E0,0E0,0E0,0E0,0E0,0E0,0E0,0E0,0E0,0E0,0E0,0E0,0E0,0E0,0E0,0E0,0E0,0E0,0E0,0E0,0E0,0E0,0E0,0E0,0E0,0E0,0E0,0E0,0E0,0E0,0E0,0E0,0E0,0E0],"parents":[2147483647,0,0,1,1,2,2,3,3,4,4,5,5,6,6,7,7,8,8,9,9,10,10,11,11,12,12,13,13,14,14,15,15,16,16,17,17,18,18,19,19,20,20,21,21,22,22,23,23,24,24,25,25,26,26,27,27,28,28,32,32,33,33,34,34,35,35,36,36,37,37,38,38,39,39,40,40,41,41,42,42,43,43,45,45,46,46,47,47,48,48,49,49,50,50,52,52,53,53,56,56,57,57],"right_children":[2,4,6,8,10,12,14,16,18,20,22,24,26,28,30,32,34,36,38,40,42,44,46,48,50,52,54,56,58,-1,-1,-1,60,62,64,66,68,70,72,74,76,78,80,82,-1,84,86,88,90,92,94,-1,96,98,-1,-1,100,102,-1,-1,-1,-1,-1,-1,-1,-1,-1,-1,-1,-1,-1,-1,-1,-1,-1,-1,-1,-1,-1,-1,-1,-1,-1,-1,-1,-1,-1,-1,-1,-1,-1,-1,-1,-1,-1,-1,-1,-1,-1,-1,-1,-1,-1],"split_conditions":[1.26E0,5E-2,2.75E0,2.6964286E-2,6E0,2.0104167E0,5.68E0,6.25E-3,1.2416667E-1,1E0,2.7E-1,2.12E0,3.1693451E0,3.375E0,6.75E0,5.952381E-3,1.1666667E-2,1.3690476E-1,2E-2,5.952381E-3,1.46E0,2.2E-1,3.2083333E-2,1.5979167E0,1E0,3.1547618E-1,1.65E0,2.0833333E-1,4.04E0,2.3294282E-1,3.0267236E-1,-1.0419134E-2,4E0,1.9523809E-2,8.416667E-2,4.083333E-2,4.083333E-2,3E-2,7.5E-1,1.8E1,1.3E1,1.27E0,1.4166666E0,9.166666E-3,2.4228737E-2,5E-1,5.0833333E-2,1.9863096E-1,3.72E0,2E-2,1.5E1,-4.4506653E-3,2.1779168E0,4E0,1.3441816E-1,2.880492E-1,4E0,4E0,1.8272224E-1,-5.6535954E-4,-1.0255205E-2,-9.729805E-3,-8.847091E-3,-1.04458425E-2,-7.1913335E-3,-8.503663E-3,-9.569831E-3,-1.0284884E-2,-8.480597E-3,-8.75965E-3,-6.5552713E-3,-3.2228746E-3,1.49036E-2,1.5063791E-1,1.00013185E-2,3.138904E-2,1.1766322E-2,3.6485776E-2,-2.942355E-3,3.7000343E-2,5.614838E-2,2.3868129E-2,-9.71879E-3,1.3081084E-2,2.4355713E-3,-1.0574596E-2,-1.5541891E-3,2.9371608E-2,5.6920607E-2,6.954238E-2,1.4491296E-1,3.1767637E-2,3.701275E-3,8.0080114E-2,9.82142E-2,8.29509E-2,9.3223415E-2,6.766471E-2,-4.2514666E-3,1.256266E-1,1.5913543E-1,1.5224181E-1,9.289774E-2],"split_indices":[5,5,5,9,3,8,5,9,8,5,5,5,9,8,5,9,8,9,5,9,6,5,8,8,0,9,5,8,5,0,0,0,3,9,8,8,8,6,7,2,0,6,8,8,0,5,8,9,6,7,2,0,8,0,0,0,5,3,0,0,0,0,0,0,0,0,0,0,0,0,0,0,0,0,0,0,0,0,0,0,0,0,0,0,0,0,0,0,0,0,0,0,0,0,0,0,0,0,0,0,0,0,0],"split_type":[0,0,0,0,0,0,0,0,0,0,0,0,0,0,0,0,0,0,0,0,0,0,0,0,0,0,0,0,0,0,0,0,0,0,0,0,0,0,0,0,0,0,0,0,0,0,0,0,0,0,0,0,0,0,0,0,0,0,0,0,0,0,0,0,0,0,0,0,0,0,0,0,0,0,0,0,0,0,0,0,0,0,0,0,0,0,0,0,0,0,0,0,0,0,0,0,0,0,0,0,0,0,0],"sum_hessian":[4.9154E4,4.5247E4,3.907E3,4.3444E4,1.803E3,2.171E3,1.736E3,3.012E4,1.3324E4,5.76E2,1.227E3,1.622E3,5.49E2,1.661E3,7.5E1,2.0942E4,9.178E3,1.175E4,1.574E3,3.3E2,2.46E2,1.7E2,1.057E3,1.499E3,1.23E2,5.18E2,3.1E1,7.69E2,8.92E2,4.8E1,2.7E1,1.7258E4,3.684E3,5.344E3,3.834E3,9.698E3,2.052E3,1.518E3,5.6E1,7E0,3.23E2,1.55E2,9.1E1,2.2E1,1.48E2,1.77E2,8.8E2,2.95E2,1.204E3,3E0,1.2E2,1E0,5.17E2,3E0,2.8E1,6E0,7.63E2,8.29E2,6.3E1,1.4E1,3.67E3,4.18E3,1.164E3,3.804E3,3E1,2.567E3,7.131E3,1.986E3,6.6E1,1.015E3,5.03E2,4.6E1,1E1,4E0,3E0,1.46E2,1.77E2,1.51E2,4E0,4.2E1,4.9E1,1.2E1,1E1,9.1E1,8.6E1,3.95E2,4.85E2,1.4E1,2.81E2,1.199E3,5E0,2E0,1E0,6.9E1,5.1E1,3.2E2,1.97E2,2E0,1E0,6.74E2,8.9E1,8.23E2,6E0],"tree_param":{"num_deleted":"0","num_feature":"10","num_nodes":"103","size_leaf_vector":"1"}},{"base_weights":[2.1570374E-3,-1.7481065E-1,2.038231E0,-1.89201E-1,1.7812398E-1,1.4033337E0,2.8341448E0,-1.9085708E-1,-1.4525135E-1,3.2824583E-2,6.1231196E-1,1.2999638E0,1.7064195E0,2.7367814E0,5.022681E0,-1.95736E-1,-1.8167333E-1,-1.5218854E-1,2.1559821E-2,4.462231E-1,-3.9576594E-2,4.52187E-1,7.6476794E-1,1.2908713E0,2.9878035E0,1.6580821E0,1.2613255E-1,2.298072E0,2.8459687E0,2.2236018E-1,2.945961E-1,-9.908661E-3,-1.9154832E-1,-1.7931856E-1,-1.9596295E-1,-1.2861475E-1,-1.725807E-1,-4.7202233E-2,2.949496E-1,1.3636133E-1,4.8027298E-1,3.8602886E-1,-7.942601E-2,6.820864E-1,1.7178582E-1,5.4075825E-1,8.002683E-1,1.2635155E0,1.6096895E0,3.239296E0,3.0683888E-2,-4.339399E-3,1.6615777E0,9.5568664E-2,1.19597174E-1,2.789064E0,3.408258E0,-9.4697215E-3,-9.858545E-3,-8.332471E-3,-9.237171E-3,-9.853153E-3,-7.879962E-3,-8.007436E-3,-4.56918E-3,-9.766993E-3,-7.587903E-3,5.1771337E-3,-6.168978E-3,3.2773346E-2,-5.385168E-3,3.0562917E-2,-7.237423E-3,2.3330217E-2,4.7910314E-2,1.6610632E-2,9.807665E-2,-4.395149E-3,3.991264E-2,6.621974E-2,2.8526759E-2,1.1576394E-2,-5.661754E-3,3.9585143E-2,1.6275596E-2,3.522443E-2,4.568384E-2,5.2189913E-2,6.5419264E-2,2.2956558E-2,8.319213E-2,1.75875E-1,3.9251853E-2,7.8778856E-2,8.938586E-2,1.3055152E-1,1.4644141E-1,8.591154E-2,1.741727E-1],"categories":[],"categories_nodes":[],"categories_segments":[],"categories_sizes":[],"default_left":[0,0,0,0,0,0,0,0,0,0,0,0,0,0,0,0,0,0,0,0,0,0,0,0,0,0,0,0,0,0,0,0,0,0,0,0,0,0,0,0,0,0,0,0,0,0,0,0,0,0,0,0,0,0,0,0,0,0,0,0,0,0,0,0,0,0,0,0,0,0,0,0,0,0,0,0,0,0,0,0,0,0,0,0,0,0,0,0,0,0,0,0,0,0,0,0,0,0,0],"id":3,"left_children":[1,3,5,7,9,11,13,15,17,19,21,23,25,27,29,31,33,35,37,39,41,43,45,47,49,51,-1,53,55,-1,-1,-1,57,59,61,63,65,67,69,71,73,75,77,79,81,83,85,87,89,91,-1,-1,93,-1,-1,95,97,-1,-1,-1,-1,-1,-1,-1,-1,-1,-1,-1,-1,-1,-1,-1,-1,-1,-1,-1,-1,-1,-1,-1,-1,-1,-1,-1,-1,-1,-1,-1,-1,-1,-1,-1,-1,-1,-1,-1,-1,-1,-1],"loss_changes":[1.769924E4,2.295625E2,1.9809326E3,3.1326904E0,1.1170743E2,6.630029E1,3.5744727E2,1.8392334E0,1.8328171E0,3.9765415E1,1.0493118E1,2.1235107E1,1.7635498E1,7.345508E1,1.0314087E1,2.4072266E-1,4.538269E-1,7.075348E-1,1.2170482E0,2.0235596E0,1.9212568E1,1.4000462E1,1.3644867E0,1.2164795E1,2.7887268E0,3.3463135E0,0E0,7.6973877E0,3.3145508E1,0E0,0E0,0E0,8.47168E-2,8.274231E-1,5.5252075E-2,8.1658936E-1,3.5469246E-1,6.099088E-1,1.9577197E0,2.8919408E0,7.157135E-1,7.5727587E0,7.7706203E0,7.8424187E0,1.7289906E0,1.5787973E0,1.4527283E0,1.346167E1,7.024353E0,2.0181122E0,0E0,0E0,2.8677979E0,0E0,0E0,2.2610352E1,9.010376E0,0E0,0E0,0E0,0E0,0E0,0E0,0E0,0E0,0E0,0E0,0E0,0E0,0E0,0E0,0E0,0E0,0E0,0E0,0E0,0E0,0E0,0E0,0E0,0E0,0E0,0E0,0E0,0E0,0E0,0E0,0E0,0E0,0E0,0E0,0E0,0E0,0E0,0E0,0E0,0E0,0E0,0E0],"parents":[2147483647,0,0,1,1,2,2,3,3,4,4,5,5,6,6,7,7,8,8,9,9,10,10,11,11,12,12,13,13,14,14,15,15,16,16,17,17,18,18,19,19,20,20,21,21,22,22,23,23,24,24,25,25,27,27,28,28,32,32,33,33,34,34,35,35,36,36,37,37,38,38,39,39,40,40,41,41,42,42,43,43,44,44,45,45,46,46,47,47,48,48,49,49,52,52,55,55,56,56],"right_children":[2,4,6,8,10,12,14,16,18,20,22,24,26,28,30,32,34,36,38,40,42,44,46,48,50,52,-1,54,56,-1,-1,-1,58,60,62,64,66,68,70,72,74,76,78,80,82,84,86,88,90,92,-1,-1,94,-1,-1,96,98,-1,-1,-1,-1,-1,-1,-1,-1,-1,-1,-1,-1,-1,-1,-1,-1,-1,-1,-1,-1,-1,-1,-1,-1,-1,-1,-1,-1,-1,-1,-1,-1,-1,-1,-1,-1,-1,-1,-1,-1,-1,-1],"split_conditions":[1.26E0,5E-2,2.75E0,1.2416667E-1,2.6958334E-1,2.0104167E0,5.68E0,2.3809524E-2,2E-2,2.7E-1,1E0,3.98E0,3.1693451E0,3.02E0,6.75E0,5.952381E-3,1.3690476E-1,1.4E1,7.5E-1,2.2E-1,2.1666666E-2,1.5E1,8.333333E-1,2.12E0,2.5E1,3.1547618E-1,1.2613255E-1,2.75E0,4.04E0,2.2236018E-1,2.945961E-1,-9.908661E-3,1.25E-3,4.083333E-2,4.083333E-2,1.1904762E-1,2.3E1,8E0,1.2663691E0,9.166666E-3,2.5E-1,1.25E-1,1E0,5.0208336E-1,7.8E-1,2.8E-1,1.46E0,1.5116667E0,6.0833335E-2,2E-2,3.0683888E-2,-4.339399E-3,2.1779168E0,9.5568664E-2,1.19597174E-1,3.4783332E0,6.2583333E-1,-9.4697215E-3,-9.858545E-3,-8.332471E-3,-9.237171E-3,-9.853153E-3,-7.879962E-3,-8.007436E-3,-4.56918E-3,-9.766993E-3,-7.587903E-3,5.1771337E-3,-6.168978E-3,3.2773346E-2,-5.385168E-3,3.0562917E-2,-7.237423E-3,2.3330217E-2,4.7910314E-2,1.6610632E-2,9.807665E-2,-4.395149E-3,3.991264E-2,6.621974E-2,2.8526759E-2,1.1576394E-2,-5.661754E-3,3.9585143E-2,1.6275596E-2,3.522443E-2,4.568384E-2,5.2189913E-2,6.5419264E-2,2.2956558E-2,8.319213E-2,1.75875E-1,3.9251853E-2,7.8778856E-2,8.938586E-2,1.3055152E-1,1.4644141E-1,8.591154E-2,1.741727E-1],"split_indices":[5,5,5,8,8,8,5,9,5,5,5,6,9,5,5,9,9,2,7,5,8,0,8,5,2,9,0,6,5,0,0,0,8,8,8,9,2,2,9,8,8,9,5,8,5,6,6,8,9,7,0,0,8,0,0,8,8,0,0,0,0,0,0,0,0,0,0,0,0,0,0,0,0,0,0,0,0,0,0,0,0,0,0,0,0,0,0,0,0,0,0,0,0,0,0,0,0,0,0],"split_type":[0,0,0,0,0,0,0,0,0,0,0,0,0,0,0,0,0,0,0,0,0,0,0,0,0,0,0,0,0,0,0,0,0,0,0,0,0,0,0,0,0,0,0,0,0,0,0,0,0,0,0,0,0,0,0,0,0,0,0,0,0,0,0,0,0,0,0,0,0,0,0,0,0,0,0,0,0,0,0,0,0,0,0,0,0,0,0,0,0,0,0,0,0,0,0,0,0,0,0],"sum_hessian":[4.9119E4,4.5192E4,3.927E3,4.3422E4,1.77E3,2.186E3,1.741E3,4.1842E4,1.58E3,1.327E3,4.43E2,1.634E3,5.52E2,1.669E3,7.2E1,2.7312E4,1.453E4,1.517E3,6.3E1,1.97E2,1.13E3,2.18E2,2.25E2,1.627E3,7E0,5.24E2,2.8E1,3.37E2,1.332E3,4.7E1,2.5E1,1.7235E4,1.0077E4,1.2486E4,2.044E3,7.07E2,8.1E2,5.1E1,1.2E1,2E1,1.77E2,9.6E1,1.034E3,1.19E2,9.9E1,3.3E1,1.92E2,1.503E3,1.24E2,6E0,1E0,1E0,5.23E2,7E1,2.67E2,1.215E3,1.17E2,7.311E3,2.766E3,3.753E3,8.733E3,1.983E3,6.1E1,3.81E2,3.26E2,3.83E2,4.27E2,1.7E1,3.4E1,6E0,6E0,7E0,1.3E1,1.74E2,3E0,9.4E1,2E0,1.025E3,9E0,1.6E1,1.03E2,8.2E1,1.7E1,1.4E1,1.9E1,1.08E2,8.4E1,2.59E2,1.244E3,6E0,1.18E2,5E0,1E0,3.19E2,2.04E2,5.43E2,6.72E2,6E0,1.11E2],"tree_param":{"num_deleted":"0","num_feature":"10","num_nodes":"99","size_leaf_vector":"1"}},{"base_weights":[7.8380737E-4,-1.5977739E-1,1.7961786E0,-1.7186841E-1,5.033509E-1,1.27467E0,2.6137464E0,-1.7622335E-1,-4.1883655E-2,4.9043196E-1,1.9075343E-1,1.1518521E0,1.428206E0,2.2542927E0,2.827564E0,-1.7834468E-1,-1.2624295E-1,-4.7452703E-2,1.9943868E-1,2.748824E-1,6.171839E-1,8.350088E-1,1.227599E0,9.2404246E-1,1.4830585E0,6.3523716E-1,2.3245595E0,2.8554938E0,1.5376455E0,-1.8234153E-1,-1.6739424E-1,1.1266568E-1,-1.6717367E-1,2.4180843E-1,-7.489206E-2,7.5446045E-1,2.04811E-1,7.20254E-1,1.4950281E-1,3.169736E-1,1.1206412E0,2.7129285E0,1.2143544E0,5.8815724E-1,1.3456409E0,1.4924575E0,2.979627E-1,1.05045885E-1,1.6250379E0,1.1847525E-1,1.33789E0,2.7644176E0,3.3876514E0,2.4183316E0,-1.0101428E-1,-9.309504E-3,-8.876752E-3,7.6700645E-3,-8.894331E-3,1.4018324E-2,-5.1761316E-3,2.1542527E-2,-8.4331455E-3,5.924597E-2,5.609128E-3,1.2033175E-2,-4.57401E-3,8.2006596E-2,5.276933E-3,1.6241614E-2,-3.2769497E-3,5.819853E-2,2.8335175E-2,1.7485723E-2,-6.8340166E-3,8.180718E-3,7.505451E-2,8.667108E-2,3.584824E-2,5.310707E-2,1.6806494E-1,4.915484E-2,6.2349375E-2,5.2265085E-2,-9.912833E-3,6.081579E-2,1.4400402E-1,7.276165E-2,1.0285914E-1,-9.1255745E-3,1.035439E-1,2.794001E-2,-8.419898E-3,1.1729195E-1,4.368321E-2,8.450358E-2,-8.82124E-3,1.3315566E-1,1.4356883E-1,1.4506483E-1,1.8183401E-1,1.539747E-1,2.4005404E-2,-9.63976E-3,1.5830826E-2],"categories":[],"categories_nodes":[],"categories_segments":[],"categories_sizes":[],"default_left":[0,0,0,0,0,0,0,0,0,0,0,0,0,0,0,0,0,0,0,0,0,0,0,0,0,0,0,0,0,0,0,0,0,0,0,0,0,0,0,0,0,0,0,0,0,0,0,0,0,0,0,0,0,0,0,0,0,0,0,0,0,0,0,0,0,0,0,0,0,0,0,0,0,0,0,0,0,0,0,0,0,0,0,0,0,0,0,0,0,0,0,0,0,0,0,0,0,0,0,0,0,0,0,0,0],"id":4,"left_children":[1,3,5,7,9,11,13,15,17,19,-1,21,23,25,27,29,31,33,-1,35,37,39,41,43,45,47,49,51,53,55,57,59,61,63,65,67,69,71,73,75,77,79,81,83,85,87,89,91,93,-1,95,97,99,101,103,-1,-1,-1,-1,-1,-1,-1,-1,-1,-1,-1,-1,-1,-1,-1,-1,-1,-1,-1,-1,-1,-1,-1,-1,-1,-1,-1,-1,-1,-1,-1,-1,-1,-1,-1,-1,-1,-1,-1,-1,-1,-1,-1,-1,-1,-1,-1,-1,-1,-1],"loss_changes":[1.4201369E4,3.6265588E2,1.7209014E3,2.5132446E1,3.278392E1,4.495044E1,1.14600586E2,4.5335693E0,3.25353E1,2.190599E1,0E0,3.2046875E1,2.888379E1,6.587256E1,3.1024414E1,1.7735596E0,1.7160896E1,1.144759E1,0E0,9.960495E0,2.4379898E1,3.9448074E1,1.8542114E1,1.4785515E1,1.05271E1,1.3473672E1,2.1974121E1,3.7210938E1,3.3436626E1,5.253296E-1,3.7166687E1,9.346547E0,1.405899E0,1.514852E1,6.910594E0,2.1666698E1,8.587493E0,2.7683655E1,5.3764386E0,1.7369139E1,4.1551315E1,6.0627136E0,7.090576E0,2.2856033E1,6.0221024E0,1.7544434E1,8.044518E0,2.3274748E0,2.8248444E0,0E0,1.4697651E1,1.3037109E0,5.9206543E0,1.7743713E1,4.0601695E-1,0E0,0E0,0E0,0E0,0E0,0E0,0E0,0E0,0E0,0E0,0E0,0E0,0E0,0E0,0E0,0E0,0E0,0E0,0E0,0E0,0E0,0E0,0E0,0E0,0E0,0E0,0E0,0E0,0E0,0E0,0E0,0E0,0E0,0E0,0E0,0E0,0E0,0E0,0E0,0E0,0E0,0E0,0E0,0E0,0E0,0E0,0E0,0E0,0E0,0E0],"parents":[2147483647,0,0,1,1,2,2,3,3,4,4,5,5,6,6,7,7,8,8,9,9,11,11,12,12,13,13,14,14,15,15,16,16,17,17,19,19,20,20,21,21,22,22,23,23,24,24,25,25,26,26,27,27,28,28,29,29,30,30,31,31,32,32,33,33,34,34,35,35,36,36,37,37,38,38,39,39,40,40,41,41,42,42,43,43,44,44,45,45,46,46,47,47,48,48,50,50,51,51,52,52,53,53,54,54],"right_children":[2,4,6,8,10,12,14,16,18,20,-1,22,24,26,28,30,32,34,-1,36,38,40,42,44,46,48,50,52,54,56,58,60,62,64,66,68,70,72,74,76,78,80,82,84,86,88,90,92,94,-1,96,98,100,102,104,-1,-1,-1,-1,-1,-1,-1,-1,-1,-1,-1,-1,-1,-1,-1,-1,-1,-1,-1,-1,-1,-1,-1,-1,-1,-1,-1,-1,-1,-1,-1,-1,-1,-1,-1,-1,-1,-1,-1,-1,-1,-1,-1,-1,-1,-1,-1,-1,-1,-1],"split_conditions":[1.3333334E0,3.4291667E-1,2.7483332E0,8.416667E-2,6E0,2E0,3.375E0,5.0833333E-2,6.73E0,6.2583333E-1,1.9075343E-1,2E-2,1.71875E0,7E-1,4E0,1.25E-3,7.375E-2,4E0,1.9943868E-1,4.1666666E-1,5E0,7E0,2E-2,4E0,6.75E0,2E1,3.77E0,4.0308332E0,3.75E0,7E0,2.1666666E-2,2.5E-1,4E0,1.9E1,1.0333333E-1,2E-2,1.7E1,2E-2,9.4458336E-1,2.5E1,3E0,1.1E1,1.5116667E0,2.52E0,4E0,3.75E0,4E0,2.9375E0,2E-2,1.1847525E-1,4E0,3.625E0,2E0,1.5E1,2E0,-9.309504E-3,-8.876752E-3,7.6700645E-3,-8.894331E-3,1.4018324E-2,-5.1761316E-3,2.1542527E-2,-8.4331455E-3,5.924597E-2,5.609128E-3,1.2033175E-2,-4.57401E-3,8.2006596E-2,5.276933E-3,1.6241614E-2,-3.2769497E-3,5.819853E-2,2.8335175E-2,1.7485723E-2,-6.8340166E-3,8.180718E-3,7.505451E-2,8.667108E-2,3.584824E-2,5.310707E-2,1.6806494E-1,4.915484E-2,6.2349375E-2,5.2265085E-2,-9.912833E-3,6.081579E-2,1.4400402E-1,7.276165E-2,1.0285914E-1,-9.1255745E-3,1.035439E-1,2.794001E-2,-8.419898E-3,1.1729195E-1,4.368321E-2,8.450358E-2,-8.82124E-3,1.3315566E-1,1.4356883E-1,1.4506483E-1,1.8183401E-1,1.539747E-1,2.4005404E-2,-9.63976E-3,1.5830826E-2],"split_indices":[8,8,8,8,7,6,8,8,7,8,0,7,8,7,3,8,8,3,0,8,3,0,6,1,6,2,6,8,6,3,8,6,3,2,8,6,0,7,8,2,1,2,8,6,6,6,1,8,6,0,3,8,1,0,1,0,0,0,0,0,0,0,0,0,0,0,0,0,0,0,0,0,0,0,0,0,0,0,0,0,0,0,0,0,0,0,0,0,0,0,0,0,0,0,0,0,0,0,0,0,0,0,0,0,0],"split_type":[0,0,0,0,0,0,0,0,0,0,0,0,0,0,0,0,0,0,0,0,0,0,0,0,0,0,0,0,0,0,0,0,0,0,0,0,0,0,0,0,0,0,0,0,0,0,0,0,0,0,0,0,0,0,0,0,0,0,0,0,0,0,0,0,0,0,0,0,0,0,0,0,0,0,0,0,0,0,0,0,0,0,0,0,0,0,0,0,0,0,0,0,0,0,0,0,0,0,0,0,0,0,0,0,0],"sum_hessian":[4.9262E4,4.5219E4,4.043E3,4.441E4,8.09E2,2.47E3,1.573E3,4.297E4,1.44E3,8.07E2,2E0,1.377E3,1.093E3,5.91E2,9.82E2,4.1218E4,1.752E3,1.439E3,1E0,3E2,5.07E2,2.68E2,1.109E3,1.09E2,9.84E2,2.5E1,5.66E2,9.6E2,2.2E1,3.0185E4,1.1033E4,2.56E2,1.496E3,1.24E2,1.315E3,3.7E1,2.63E2,4.15E2,9.2E1,9.6E1,1.72E2,8E0,1.101E3,6.2E1,4.7E1,9.76E2,8E0,1.7E1,8E0,5.4E2,2.6E1,8.25E2,1.35E2,1.4E1,8E0,1.6742E4,1.3443E4,3.49E2,1.0684E4,1.44E2,1.12E2,3E0,1.493E3,1.4E1,1.1E2,6.5E1,1.25E3,1.5E1,2.2E1,1.82E2,8.1E1,1.05E2,3.1E2,5.4E1,3.8E1,8.6E1,1E1,6.7E1,1.05E2,3E0,5E0,1.4E2,9.61E2,3.9E1,2.3E1,4.5E1,2E0,9.19E2,5.7E1,7E0,1E0,6E0,1.1E1,3E0,5E0,2.1E1,5E0,4.37E2,3.88E2,5E1,8.5E1,1E1,4E0,7E0,1E0],"tree_param":{"num_deleted":"0","num_feature":"10","num_nodes":"105","size_leaf_vector":"1"}},{"base_weights":[1.0518759E-3,-1.5939921E-1,1.8283528E0,-1.709602E-1,1.3476303E-1,1.2473327E0,2.5667877E0,-1.7611922E-1,-1.5930401E-1,4.5397654E-1,5.2911444E-3,1.1793821E0,1.5691963E0,2.473903E0,4.665435E0,-8.964767E-3,-1.7183651E-1,-1.7315719E-1,-1.564466E-1,3.499994E-1,6.3985574E-1,3.9556894E-1,-5.963584E-2,8.5995823E-1,1.2031351E0,1.4580103E0,1.8932587E0,2.0766592E0,2.5737407E0,3.7239451E0,2.5120208E-1,-1.5968075E-2,-1.7202923E-1,-1.7410548E-1,3.8018595E-2,-1.5702224E-1,8.533708E-2,6.2687117E-1,2.3502551E-1,5.946868E-1,7.284149E-1,1.5569009E-1,2.1463199E-2,-6.5244124E-3,-1.6568783E-1,4.364618E-2,1.5797952E-2,1.1533722E0,1.3201199E0,2.290269E0,1.4413886E0,7.6330256E-1,1.9218084E0,1.7927387E0,1.0647582E-1,2.5214548E0,1.5279196E-1,1.9579871E-1,8.924038E-2,8.995178E-3,-8.5534295E-3,-8.606591E-3,-6.2011154E-3,-9.149725E-3,-8.372417E-3,-8.592839E-3,9.124917E-3,-8.163112E-3,-7.5437366E-3,4.2550396E-2,-1.1259906E-2,1.8961182E-1,2.7562251E-2,9.577592E-3,5.3563833E-2,3.3645216E-2,2.1766799E-2,3.780594E-2,-1.9126087E-4,1.1401904E-2,-7.5185136E-3,-8.527881E-3,2.5831398E-3,-8.952737E-3,-4.5490023E-3,-3.7202984E-4,1.5568763E-3,3.871238E-2,5.8402028E-2,5.5437226E-2,6.864831E-2,1.977861E-3,1.5136601E-1,5.6330296E-3,7.298532E-2,-7.284502E-3,5.5743176E-2,9.697998E-2,3.7373293E-2,4.288366E-2,9.134529E-2,9.2031926E-2,1.2727734E-1],"categories":[],"categories_nodes":[],"categories_segments":[],"categories_sizes":[],"default_left":[0,0,0,0,0,0,0,0,0,0,0,0,0,0,0,0,0,0,0,0,0,0,0,0,0,0,0,0,0,0,0,0,0,0,0,0,0,0,0,0,0,0,0,0,0,0,0,0,0,0,0,0,0,0,0,0,0,0,0,0,0,0,0,0,0,0,0,0,0,0,0,0,0,0,0,0,0,0,0,0,0,0,0,0,0,0,0,0,0,0,0,0,0,0,0,0,0,0,0,0,0,0,0],"id":5,"left_children":[1,3,5,7,9,11,13,15,17,19,21,23,25,27,29,-1,31,33,35,37,39,41,43,45,47,49,51,53,55,57,-1,59,61,63,65,67,69,71,73,75,77,79,-1,81,83,-1,85,87,89,91,93,95,97,99,-1,101,-1,-1,-1,-1,-1,-1,-1,-1,-1,-1,-1,-1,-1,-1,-1,-1,-1,-1,-1,-1,-1,-1,-1,-1,-1,-1,-1,-1,-1,-1,-1,-1,-1,-1,-1,-1,-1,-1,-1,-1,-1,-1,-1,-1,-1,-1,-1],"loss_changes":[1.4434447E4,1.5393689E2,1.7018252E3,2.5905762E0,7.075314E1,4.6833984E1,3.293955E2,3.7976074E-1,5.0216675E-1,9.323677E0,3.0912514E1,1.2940918E1,1.1111511E1,6.116504E1,5.937378E0,0E0,3.8394165E-1,4.626007E-1,1.5576172E0,1.0007404E1,2.708435E-1,1.3395653E0,5.8905897E0,1.4199753E0,8.443848E0,7.2442627E-1,1.5977783E0,1.3146973E0,2.5970703E1,1.9476013E0,0E0,5.472322E-1,4.1992188E-2,1.03515625E-1,3.6491373E-1,3.9996338E-1,6.6113744E0,2.0172283E1,8.04736E0,1.2276688E0,1.1186161E0,5.4357576E-1,0E0,6.670966E0,3.322258E-1,0E0,1.3010902E-3,5.819092E0,4.107666E0,6.515808E0,6.845276E0,1.4406896E0,4.723816E-1,3.5002136E-1,0E0,1.5178223E1,0E0,0E0,0E0,0E0,0E0,0E0,0E0,0E0,0E0,0E0,0E0,0E0,0E0,0E0,0E0,0E0,0E0,0E0,0E0,0E0,0E0,0E0,0E0,0E0,0E0,0E0,0E0,0E0,0E0,0E0,0E0,0E0,0E0,0E0,0E0,0E0,0E0,0E0,0E0,0E0,0E0,0E0,0E0,0E0,0E0,0E0,0E0],"parents":[2147483647,0,0,1,1,2,2,3,3,4,4,5,5,6,6,7,7,8,8,9,9,10,10,11,11,12,12,13,13,14,14,16,16,17,17,18,18,19,19,20,20,21,21,22,22,23,23,24,24,25,25,26,26,27,27,28,28,29,29,31,31,32,32,33,33,34,34,35,35,36,36,37,37,38,38,39,39,40,40,41,41,43,43,44,44,46,46,47,47,48,48,49,49,50,50,51,51,52,52,53,53,55,55],"right_children":[2,4,6,8,10,12,14,16,18,20,22,24,26,28,30,-1,32,34,36,38,40,42,44,46,48,50,52,54,56,58,-1,60,62,64,66,68,70,72,74,76,78,80,-1,82,84,-1,86,88,90,92,94,96,98,100,-1,102,-1,-1,-1,-1,-1,-1,-1,-1,-1,-1,-1,-1,-1,-1,-1,-1,-1,-1,-1,-1,-1,-1,-1,-1,-1,-1,-1,-1,-1,-1,-1,-1,-1,-1,-1,-1,-1,-1,-1,-1,-1,-1,-1,-1,-1,-1,-1],"split_conditions":[1.25E0,5E-2,2.75E0,2.6964286E-2,6E0,2.12E0,5.68E0,5.952381E-3,5E0,1E0,2.7E-1,1.29E0,2.09375E0,3.02E0,6.15E0,-8.964767E-3,4E0,2E-2,1.7767857E0,1E1,1.4211309E0,2.2E-1,7.7E-1,2.52E0,1.8301786E0,1.3571428E-2,1E0,2.09375E0,4.04E0,2.2E1,2.5120208E-1,8E0,9.8E-1,3E0,2E-2,4.761905E-2,1.2E1,5.952381E-3,1.6607143E0,1.4E1,6E0,2E1,2.1463199E-2,4.5E-1,8.3333336E-2,4.364618E-2,1.4E1,4.4642857E-1,1.75E0,1E1,6.0833335E-2,2E0,3.6343453E0,1E0,1.0647582E-1,4.4642857E-1,1.5279196E-1,1.9579871E-1,8.924038E-2,8.995178E-3,-8.5534295E-3,-8.606591E-3,-6.2011154E-3,-9.149725E-3,-8.372417E-3,-8.592839E-3,9.124917E-3,-8.163112E-3,-7.5437366E-3,4.2550396E-2,-1.1259906E-2,1.8961182E-1,2.7562251E-2,9.577592E-3,5.3563833E-2,3.3645216E-2,2.1766799E-2,3.780594E-2,-1.9126087E-4,1.1401904E-2,-7.5185136E-3,-8.527881E-3,2.5831398E-3,-8.952737E-3,-4.5490023E-3,-3.7202984E-4,1.5568763E-3,3.871238E-2,5.8402028E-2,5.5437226E-2,6.864831E-2,1.977861E-3,1.5136601E-1,5.6330296E-3,7.298532E-2,-7.284502E-3,5.5743176E-2,9.697998E-2,3.7373293E-2,4.288366E-2,9.134529E-2,9.2031926E-2,1.2727734E-1],"split_indices":[5,5,5,9,3,5,5,9,3,5,5,5,9,5,5,0,3,5,9,2,9,5,5,7,9,9,0,9,5,0,0,0,7,1,7,9,2,9,9,0,1,0,0,5,9,0,0,9,5,0,9,2,9,0,0,9,0,0,0,0,0,0,0,0,0,0,0,0,0,0,0,0,0,0,0,0,0,0,0,0,0,0,0,0,0,0,0,0,0,0,0,0,0,0,0,0,0,0,0,0,0,0,0],"split_type":[0,0,0,0,0,0,0,0,0,0,0,0,0,0,0,0,0,0,0,0,0,0,0,0,0,0,0,0,0,0,0,0,0,0,0,0,0,0,0,0,0,0,0,0,0,0,0,0,0,0,0,0,0,0,0,0,0,0,0,0,0,0,0,0,0,0,0,0,0,0,0,0,0,0,0,0,0,0,0,0,0,0,0,0,0,0,0,0,0,0,0,0,0,0,0,0,0,0,0,0,0,0,0],"sum_hessian":[4.923E4,4.5257E4,3.973E3,4.3546E4,1.711E3,2.225E3,1.748E3,3.0176E4,1.337E4,4.93E2,1.218E3,1.841E3,3.84E2,1.676E3,7.2E1,1.7303E4,1.2873E4,2.276E3,1.1094E4,3.18E2,1.75E2,1.73E2,1.045E3,1.3E2,1.711E3,2.9E2,9.4E1,3.41E2,1.335E3,2.3E1,4.9E1,1.6E1,1.2857E4,2.266E3,1E1,1.1068E4,2.6E1,9.2E1,2.26E2,1.21E2,5.4E1,2.2E1,1.51E2,6.97E2,3.48E2,1.28E2,2E0,1.208E3,5.03E2,3E0,2.87E2,3E0,9.1E1,5.9E1,2.82E2,1.21E3,1.25E2,2E1,3E0,7E0,9E0,1.2827E4,3E1,9.59E2,1.307E3,4E0,6E0,5.48E3,5.588E3,7E0,1.9E1,1E0,9.1E1,2.16E2,1E1,7.9E1,4.2E1,5.2E1,2E0,1.8E1,4E0,1.82E2,5.15E2,2.94E2,5.4E1,1E0,1E0,4.7E1,1.161E3,1.05E2,3.98E2,1E0,2E0,4E0,2.83E2,1E0,2E0,8.9E1,2E0,3E0,5.6E1,4.4E1,1.166E3],"tree_param":{"num_deleted":"0","num_feature":"10","num_nodes":"103","size_leaf_vector":"1"}},{"base_weights":[2.231041E-3,-1.4435364E-1,1.5284337E0,-1.5725833E-1,-3.0486502E-2,1.103323E0,2.3419306E0,-1.6225502E-1,-1.2397831E-1,-5.2086297E-2,2.0416085E-1,2.954188E-1,1.1600457E0,2.4466069E0,1.6691139E0,-8.431426E-3,-1.5280071E-1,-3.5875313E-2,-1.3225168E-1,-7.142262E-3,-9.117798E-2,1.2022985E-1,1.1933368E0,1.2007434E-1,1.2466033E0,1.0731802E0,1.5294663E0,2.364201E0,2.6420002E0,1.8769625E0,-1.0586172E-2,7.609141E-2,-1.5468727E-1,2.0698483E-1,-5.4271925E-2,-4.665185E-2,-1.3415247E-1,8.4273554E-2,-8.970441E-2,-9.8909006E-2,2.0742764E0,4.0933895E-1,-8.7450385E-2,1.0766287E-1,1.5190783E0,3.9009117E-2,6.8152714E-1,-8.702389E-3,1.6247752E0,7.913973E-1,1.1638362E0,1.7041826E0,1.1971538E0,3.1626654E0,2.3426318E0,1.2508906E-1,2.9589968E0,2.0042317E0,9.100046E-1,-4.157677E-3,7.3157184E-2,-1.1910688E-3,-7.7629276E-3,-3.7588186E-3,4.9152214E-2,4.827707E-3,-7.6939235E-3,-7.2316932E-3,-6.2179775E-3,1.2128741E-2,-3.2936742E-3,-7.253521E-3,6.266599E-3,-3.5169148E-3,-6.889862E-3,1.2685911E-1,4.8853766E-2,9.871795E-2,1.7627487E-2,-5.891061E-3,1.3035272E-2,-9.428429E-3,3.321191E-2,6.5055445E-2,1.5786014E-1,-1.3135207E-3,4.4513505E-2,1.1502286E-1,-5.7399843E-4,2.4064975E-2,1.10127114E-1,4.3868363E-2,2.5011152E-2,5.4357618E-2,6.391824E-2,7.382756E-2,9.4257705E-2,6.90459E-2,1.0902046E-2,2.2060151E-1,1.24824345E-1,9.5815055E-2,1.1794676E-1,1.3411018E-1,1.7088242E-1,1.55952275E-2,1.0456248E-1,-1.2277519E-2,9.088908E-2],"categories":[],"categories_nodes":[],"categories_segments":[],"categories_sizes":[],"default_left":[0,0,0,0,0,0,0,0,0,0,0,0,0,0,0,0,0,0,0,0,0,0,0,0,0,0,0,0,0,0,0,0,0,0,0,0,0,0,0,0,0,0,0,0,0,0,0,0,0,0,0,0,0,0,0,0,0,0,0,0,0,0,0,0,0,0,0,0,0,0,0,0,0,0,0,0,0,0,0,0,0,0,0,0,0,0,0,0,0,0,0,0,0,0,0,0,0,0,0,0,0,0,0,0,0,0,0,0,0],"id":6,"left_children":[1,3,5,7,9,11,13,15,17,19,21,23,25,27,29,-1,31,33,35,37,39,41,43,45,47,49,51,53,55,57,-1,59,61,-1,63,65,67,69,71,73,75,77,79,81,83,85,87,-1,89,91,93,95,97,99,101,-1,103,105,107,-1,-1,-1,-1,-1,-1,-1,-1,-1,-1,-1,-1,-1,-1,-1,-1,-1,-1,-1,-1,-1,-1,-1,-1,-1,-1,-1,-1,-1,-1,-1,-1,-1,-1,-1,-1,-1,-1,-1,-1,-1,-1,-1,-1,-1,-1,-1,-1,-1,-1],"loss_changes":[1.0993272E4,6.587372E1,1.486544E3,6.6762695E0,2.3147583E1,1.2934619E2,9.9938965E1,2.0837402E0,3.8300476E0,7.345106E0,3.18202E1,3.1039095E1,8.320459E1,1.4299316E1,7.936517E1,0E0,6.103882E0,3.502249E1,7.7619934E-1,1.4694968E1,3.763846E1,2.1410837E1,1.0445923E1,7.210188E0,1.5863045E1,5.38479E1,2.7048096E1,8.211426E0,9.043213E0,2.0573792E1,0E0,2.574387E1,1.0424194E0,0E0,9.875304E0,1.64254E0,4.6485138E-1,2.197804E1,1.2197721E1,2.4668694E0,1.5841904E0,1.2546503E1,2.230063E0,1.4442551E0,4.104542E0,7.803175E0,2.2465008E1,0E0,1.413517E1,1.2703064E1,1.2837891E1,1.0645935E1,3.1365906E1,6.46373E0,1.6445312E0,0E0,4.5440063E0,2.2909729E1,2.4573036E1,0E0,0E0,0E0,0E0,0E0,0E0,0E0,0E0,0E0,0E0,0E0,0E0,0E0,0E0,0E0,0E0,0E0,0E0,0E0,0E0,0E0,0E0,0E0,0E0,0E0,0E0,0E0,0E0,0E0,0E0,0E0,0E0,0E0,0E0,0E0,0E0,0E0,0E0,0E0,0E0,0E0,0E0,0E0,0E0,0E0,0E0,0E0,0E0,0E0,0E0],"parents":[2147483647,0,0,1,1,2,2,3,3,4,4,5,5,6,6,7,7,8,8,9,9,10,10,11,11,12,12,13,13,14,14,16,16,17,17,18,18,19,19,20,20,21,21,22,22,23,23,24,24,25,25,26,26,27,27,28,28,29,29,31,31,32,32,34,34,35,35,36,36,37,37,38,38,39,39,40,40,41,41,42,42,43,43,44,44,45,45,46,46,48,48,49,49,50,50,51,51,52,52,53,53,54,54,56,56,57,57,58,58],"right_children":[2,4,6,8,10,12,14,16,18,20,22,24,26,28,30,-1,32,34,36,38,40,42,44,46,48,50,52,54,56,58,-1,60,62,-1,64,66,68,70,72,74,76,78,80,82,84,86,88,-1,90,92,94,96,98,100,102,-1,104,106,108,-1,-1,-1,-1,-1,-1,-1,-1,-1,-1,-1,-1,-1,-1,-1,-1,-1,-1,-1,-1,-1,-1,-1,-1,-1,-1,-1,-1,-1,-1,-1,-1,-1,-1,-1,-1,-1,-1,-1,-1,-1,-1,-1,-1,-1,-1,-1,-1,-1,-1],"split_conditions":[1E0,7.7380955E-2,2.8972025E0,3.5833333E-2,2.8E-1,4.7619048E-1,4E0,6.25E-3,6E0,5E0,1.6607143E0,2.5E1,2.26E0,4E0,4.03E0,-8.431426E-3,5E0,3E0,4.1666668E-2,4.4642857E-1,1.8932738E0,5E0,6E0,5E0,1E0,1.6607143E0,4E0,3.0729167E0,5E0,8E0,-1.0586172E-2,2.2E1,1.1904762E-2,2.0698483E-1,2.9E1,2E-2,4.892857E-2,3E0,2.5E1,1.4E1,1E0,1.3690476E-1,4.4642857E-1,5E0,1.9806547E0,2.1E1,9E0,-8.702389E-3,1.9863096E-1,2.3E1,1.8301786E0,2.09375E0,1.9361905E0,1E0,3.1693451E0,1.2508906E-1,1.7E1,2.54E0,3.0729167E0,-4.157677E-3,7.3157184E-2,-1.1910688E-3,-7.7629276E-3,-3.7588186E-3,4.9152214E-2,4.827707E-3,-7.6939235E-3,-7.2316932E-3,-6.2179775E-3,1.2128741E-2,-3.2936742E-3,-7.253521E-3,6.266599E-3,-3.5169148E-3,-6.889862E-3,1.2685911E-1,4.8853766E-2,9.871795E-2,1.7627487E-2,-5.891061E-3,1.3035272E-2,-9.428429E-3,3.321191E-2,6.5055445E-2,1.5786014E-1,-1.3135207E-3,4.4513505E-2,1.1502286E-1,-5.7399843E-4,2.4064975E-2,1.10127114E-1,4.3868363E-2,2.5011152E-2,5.4357618E-2,6.391824E-2,7.382756E-2,9.4257705E-2,6.90459E-2,1.0902046E-2,2.2060151E-1,1.24824345E-1,9.5815055E-2,1.1794676E-1,1.3411018E-1,1.7088242E-1,1.55952275E-2,1.0456248E-1,-1.2277519E-2,9.088908E-2],"split_indices":[6,9,9,9,6,9,3,9,3,3,9,2,6,6,6,0,3,2,9,9,9,3,2,1,1,9,3,9,1,2,0,2,9,0,2,7,9,1,2,0,1,9,9,1,9,0,2,0,9,2,9,9,9,1,9,0,2,7,9,0,0,0,0,0,0,0,0,0,0,0,0,0,0,0,0,0,0,0,0,0,0,0,0,0,0,0,0,0,0,0,0,0,0,0,0,0,0,0,0,0,0,0,0,0,0,0,0,0,0],"split_type":[0,0,0,0,0,0,0,0,0,0,0,0,0,0,0,0,0,0,0,0,0,0,0,0,0,0,0,0,0,0,0,0,0,0,0,0,0,0,0,0,0,0,0,0,0,0,0,0,0,0,0,0,0,0,0,0,0,0,0,0,0,0,0,0,0,0,0,0,0,0,0,0,0,0,0,0,0,0,0,0,0,0,0,0,0,0,0,0,0,0,0,0,0,0,0,0,0,0,0,0,0,0,0,0,0,0,0,0,0],"sum_hessian":[4.9137E4,4.4832E4,4.305E3,4.0268E4,4.564E3,2.829E3,1.476E3,3.5008E4,5.26E3,4.18E3,3.84E2,1.86E2,2.643E3,1.275E3,2.01E2,2.0901E4,1.4107E4,4.52E2,4.808E3,1.945E3,2.235E3,3.55E2,2.9E1,1.58E2,2.8E1,2.143E3,5E2,9.06E2,3.69E2,1.81E2,2E1,1.15E2,1.3992E4,1E0,4.51E2,1.05E2,4.703E3,9.23E2,1.022E3,2.228E3,7E0,1.48E2,2.07E2,7E0,2.2E1,1.39E2,1.9E1,6E0,2.2E1,5.24E2,1.619E3,3.25E2,1.75E2,2E1,8.86E2,2.62E2,1.07E2,1.59E2,2.2E1,1.04E2,1.1E1,6.1E1,1.3931E4,4.43E2,8E0,4.5E1,6E1,2.265E3,2.438E3,4.49E2,4.74E2,8.13E2,2.09E2,1.286E3,9.42E2,4E0,3E0,4E0,1.44E2,1.91E2,1.6E1,5E0,2E0,2.1E1,1E0,1.3E2,9E0,5E0,1.4E1,8E0,1.4E1,4.03E2,1.21E2,9.76E2,6.43E2,1.48E2,1.77E2,1.47E2,2.8E1,5E0,1.5E1,3.7E1,8.49E2,7.1E1,3.6E1,8E0,1.51E2,1E1,1.2E1],"tree_param":{"num_deleted":"0","num_feature":"10","num_nodes":"109","size_leaf_vector":"1"}},{"base_weights":[2.5826849E-3,-1.4260721E-1,1.6715829E0,-1.5495749E-1,1.5811627E-1,1.1432804E0,2.3326678E0,-1.6074806E-1,-1.4759283E-1,4.6437448E-1,1.7983437E-2,1.0688066E0,1.4665453E0,2.2460814E0,4.258705E0,-8.083041E-3,-1.549974E-1,-1.6488715E-1,-1.4527291E-1,5.945999E-1,2.907948E-1,3.738912E-1,-4.609042E-2,9.9405E-1,1.2083486E0,5.007128E-1,1.4896123E0,1.874599E0,2.3408258E0,1.9076343E-1,2.465308E-1,-1.5262878E-1,-1.6203617E-1,-1.63202E-1,-3.0307886E-1,-1.4639093E-1,-3.585668E-2,1.850823E-1,5.7318896E-1,1.5540554E-1,5.901894E-1,8.6201124E-2,2.0685619E-2,1.5301165E-1,-8.687255E-2,2.13877E-1,1.0040315E0,-1.866014E-2,1.2143742E0,-1.4933199E-2,7.9750097E-1,1.4759007E-1,1.4672191E0,1.9135017E0,1.3236965E0,2.2937887E0,2.9483378E0,-7.14335E-3,-7.7320966E-3,-8.164867E-3,-5.9286803E-3,-8.393207E-3,-6.6383197E-3,-1.0434185E-2,-1.7451657E-2,-6.876188E-3,-7.5368895E-3,-3.7485664E-3,1.8927071E-2,3.664134E-2,2.279788E-2,6.4080055E-3,8.0559224E-2,3.608765E-2,2.3481673E-2,2.046464E-2,-8.6906925E-3,1.1530616E-2,3.1174042E-3,-8.670147E-3,-8.8957243E-4,4.1074507E-2,5.233524E-4,4.4544768E-2,5.1674254E-2,1.076037E-2,-8.41759E-3,5.7617523E-2,6.471948E-2,8.376164E-3,-9.620598E-3,4.936301E-2,1.07701E-2,7.1156345E-2,1.0296651E-1,1.4638987E-1,9.440536E-2,7.1889125E-2,4.4364024E-2,2.4647568E-1,1.1406251E-1,-2.032789E-2,1.4948362E-1],"categories":[],"categories_nodes":[],"categories_segments":[],"categories_sizes":[],"default_left":[0,0,0,0,0,0,0,0,0,0,0,0,0,0,0,0,0,0,0,0,0,0,0,0,0,0,0,0,0,0,0,0,0,0,0,0,0,0,0,0,0,0,0,0,0,0,0,0,0,0,0,0,0,0,0,0,0,0,0,0,0,0,0,0,0,0,0,0,0,0,0,0,0,0,0,0,0,0,0,0,0,0,0,0,0,0,0,0,0,0,0,0,0,0,0,0,0,0,0,0,0,0,0],"id":7,"left_children":[1,3,5,7,9,11,13,15,17,19,21,23,25,27,29,-1,31,33,35,37,39,41,43,45,47,49,51,53,55,-1,-1,57,59,61,63,65,67,-1,69,71,73,75,-1,77,79,81,83,85,87,89,91,-1,93,95,97,99,101,-1,-1,-1,-1,-1,-1,-1,-1,-1,-1,-1,-1,-1,-1,-1,-1,-1,-1,-1,-1,-1,-1,-1,-1,-1,-1,-1,-1,-1,-1,-1,-1,-1,-1,-1,-1,-1,-1,-1,-1,-1,-1,-1,-1,-1,-1],"loss_changes":[1.1908667E4,1.6793903E2,1.3709453E3,1.8283691E0,7.655528E1,5.1108154E1,2.8161328E2,1.0247803E-1,7.4346924E-1,1.2485611E1,2.7952602E1,1.7388062E1,8.321716E0,5.4495117E1,3.2365723E0,0E0,3.1166077E-2,4.7566605E-1,2.0589294E0,1.9099693E1,9.717705E0,2.106638E0,8.449771E0,8.865356E0,4.5843506E0,1.695323E0,8.668091E0,4.861084E0,3.1214355E1,0E0,0E0,2.7545929E-2,2.6021957E-2,2.9413986E-1,3.9946795E-2,6.230774E-1,2.816334E0,0E0,5.6170883E0,6.4569507E0,8.506012E-1,2.087349E0,0E0,1.2309151E0,5.155596E0,1.9689145E0,2.914795E0,1.7626263E-1,1.555603E0,1.941442E-1,5.605526E-1,0E0,7.329529E0,2.7144775E0,1.8798828E-2,2.966748E1,1.3973328E1,0E0,0E0,0E0,0E0,0E0,0E0,0E0,0E0,0E0,0E0,0E0,0E0,0E0,0E0,0E0,0E0,0E0,0E0,0E0,0E0,0E0,0E0,0E0,0E0,0E0,0E0,0E0,0E0,0E0,0E0,0E0,0E0,0E0,0E0,0E0,0E0,0E0,0E0,0E0,0E0,0E0,0E0,0E0,0E0,0E0,0E0],"parents":[2147483647,0,0,1,1,2,2,3,3,4,4,5,5,6,6,7,7,8,8,9,9,10,10,11,11,12,12,13,13,14,14,16,16,17,17,18,18,19,19,20,20,21,21,22,22,23,23,24,24,25,25,26,26,27,27,28,28,31,31,32,32,33,33,34,34,35,35,36,36,38,38,39,39,40,40,41,41,43,43,44,44,45,45,46,46,47,47,48,48,49,49,50,50,52,52,53,53,54,54,55,55,56,56],"right_children":[2,4,6,8,10,12,14,16,18,20,22,24,26,28,30,-1,32,34,36,38,40,42,44,46,48,50,52,54,56,-1,-1,58,60,62,64,66,68,-1,70,72,74,76,-1,78,80,82,84,86,88,90,92,-1,94,96,98,100,102,-1,-1,-1,-1,-1,-1,-1,-1,-1,-1,-1,-1,-1,-1,-1,-1,-1,-1,-1,-1,-1,-1,-1,-1,-1,-1,-1,-1,-1,-1,-1,-1,-1,-1,-1,-1,-1,-1,-1,-1,-1,-1,-1,-1,-1,-1],"split_conditions":[1.26E0,5E-2,2.75E0,1.7857144E-2,6E0,2.12E0,5.68E0,6.25E-3,5E0,2.1E1,2.7E-1,1.8229166E0,1.9863096E-1,3.02E0,6.75E0,-8.083041E-3,1.25E-3,3.3943453E0,3.4291667E-1,5.952381E-3,1E0,2.2E-1,3.2083333E-2,1.489881E-1,3.690476E-1,6E0,2.559524E-1,5E0,4.29E0,1.9076343E-1,2.465308E-1,8E0,6.333333E-2,6E0,3E0,1.25E-3,2.02E0,1.850823E-1,1.1E1,1.7589285E0,1.1E1,9.166666E-3,2.0685619E-2,5E-1,5.0833333E-2,6E0,1.5116667E0,2E0,2.0104167E0,2.23E0,2.37E0,1.4759007E-1,3.1693451E0,1.3333334E0,1.94625E0,1.6666667E-1,3.4291667E-1,-7.14335E-3,-7.7320966E-3,-8.164867E-3,-5.9286803E-3,-8.393207E-3,-6.6383197E-3,-1.0434185E-2,-1.7451657E-2,-6.876188E-3,-7.5368895E-3,-3.7485664E-3,1.8927071E-2,3.664134E-2,2.279788E-2,6.4080055E-3,8.0559224E-2,3.608765E-2,2.3481673E-2,2.046464E-2,-8.6906925E-3,1.1530616E-2,3.1174042E-3,-8.670147E-3,-8.8957243E-4,4.1074507E-2,5.233524E-4,4.4544768E-2,5.1674254E-2,1.076037E-2,-8.41759E-3,5.7617523E-2,6.471948E-2,8.376164E-3,-9.620598E-3,4.936301E-2,1.07701E-2,7.1156345E-2,1.0296651E-1,1.4638987E-1,9.440536E-2,7.1889125E-2,4.4364024E-2,2.4647568E-1,1.1406251E-1,-2.032789E-2,1.4948362E-1],"split_indices":[5,5,5,9,3,5,5,9,3,2,5,8,9,5,5,0,8,9,8,9,5,5,8,9,9,2,9,3,5,0,0,2,8,1,2,8,7,0,0,9,0,8,0,5,8,0,8,1,8,5,5,0,9,8,8,8,8,0,0,0,0,0,0,0,0,0,0,0,0,0,0,0,0,0,0,0,0,0,0,0,0,0,0,0,0,0,0,0,0,0,0,0,0,0,0,0,0,0,0,0,0,0,0],"split_type":[0,0,0,0,0,0,0,0,0,0,0,0,0,0,0,0,0,0,0,0,0,0,0,0,0,0,0,0,0,0,0,0,0,0,0,0,0,0,0,0,0,0,0,0,0,0,0,0,0,0,0,0,0,0,0,0,0,0,0,0,0,0,0,0,0,0,0,0,0,0,0,0,0,0,0,0,0,0,0,0,0,0,0,0,0,0,0,0,0,0,0,0,0,0,0,0,0,0,0,0,0,0,0],"sum_hessian":[4.9142E4,4.521E4,3.932E3,4.3427E4,1.783E3,2.187E3,1.745E3,2.43E4,1.9127E4,5.59E2,1.224E3,1.781E3,4.06E2,1.672E3,7.3E1,2.0948E4,3.352E3,2.254E3,1.6873E4,3.18E2,2.41E2,1.86E2,1.038E3,1.165E3,6.16E2,1E1,3.96E2,3.44E2,1.328E3,4.8E1,2.5E1,2.525E3,8.27E2,2.229E3,2.5E1,1.6702E4,1.71E2,1E0,3.17E2,1.67E2,7.4E1,2.3E1,1.63E2,1.76E2,8.62E2,1.5E1,1.15E3,3E0,6.13E2,4E0,6E0,4E0,3.92E2,3.19E2,2.5E1,1.237E3,9.1E1,4.44E2,2.081E3,8.01E2,2.6E1,1.929E3,3E2,1E1,1.5E1,5.505E3,1.1197E4,1.57E2,1.4E1,1.32E2,1.85E2,1.65E2,2E0,3.3E1,4.1E1,1E1,1.3E1,9.4E1,8.2E1,3.82E2,4.8E2,3E0,1.2E1,2.44E2,9.06E2,1E0,2E0,3.54E2,2.59E2,2E0,2E0,4E0,2E0,3.68E2,2.4E1,5E0,3.14E2,1.8E1,7E0,4E0,1.233E3,1E0,9E1],"tree_param":{"num_deleted":"0","num_feature":"10","num_nodes":"103","size_leaf_vector":"1"}},{"base_weights":[9.4107573E-4,-1.351962E-1,1.6088563E0,-1.401352E-1,6.0970724E-1,1.1076986E0,2.2229676E0,-1.4762275E-1,7.116977E-2,5.2602684E-1,7.204269E-1,1.0393938E0,1.397403E0,2.1408489E0,4.0010357E0,-1.5151681E-1,-1.3875394E-1,3.9971063E-1,1.213366E-2,5.433051E-1,-1.6663778E-1,5.306366E-1,8.229234E-1,1.029595E0,2.465496E0,1.3112954E0,1.6763271E0,4.755208E0,2.1268249E0,3.2153783E0,2.1761476E-1,-7.6879137E-3,-1.4852162E-1,-1.3780965E-1,-2.3329954E-1,9.298832E-2,4.458646E-1,-3.706749E-2,3.0209765E-1,5.500659E-1,-1.4981821E-2,6.9736126E-3,-1.3901668E-2,5.5094475E-1,-1.0088422E-2,6.3307144E-2,7.7649355E-1,9.37148E-1,1.1191317E0,2.977628E0,8.2485807E-1,1.9029769E0,1.2706097E0,1.5552989E0,1.9665278E0,5.299462E-2,2.5658485E-1,1.782606E0,2.2148767E0,1.6832583E-1,7.523514E-2,-7.231547E-3,-7.7970824E-3,-6.9704712E-3,-3.862377E-3,-1.2740168E-2,-5.114415E-3,2.6067987E-2,-4.865154E-3,2.1460546E-2,7.092958E-2,1.4759314E-2,-3.3721083E-3,9.282187E-2,1.3784373E-2,2.3982598E-2,3.1804726E-2,2.8672665E-2,1.258418E-2,4.0972997E-2,1.8517783E-2,-1.5592948E-2,4.709814E-2,1.9002141E-2,5.636802E-2,3.5513587E-2,1.6000344E-1,1.7057355E-2,5.6899775E-2,-7.2177115E-4,1.2259201E-1,2.4368374E-2,6.412371E-2,8.011407E-2,1.9563189E-2,5.217096E-2,1.0529748E-1,7.293782E-2,9.276449E-2,4.3203365E-2,1.1165488E-1],"categories":[],"categories_nodes":[],"categories_segments":[],"categories_sizes":[],"default_left":[0,0,0,0,0,0,0,0,0,0,0,0,0,0,0,0,0,0,0,0,0,0,0,0,0,0,0,0,0,0,0,0,0,0,0,0,0,0,0,0,0,0,0,0,0,0,0,0,0,0,0,0,0,0,0,0,0,0,0,0,0,0,0,0,0,0,0,0,0,0,0,0,0,0,0,0,0,0,0,0,0,0,0,0,0,0,0,0,0,0,0,0,0,0,0,0,0,0,0,0,0],"id":8,"left_children":[1,3,5,7,9,11,13,15,17,19,21,23,25,27,29,31,33,35,37,39,41,43,45,47,49,51,53,55,57,59,-1,-1,61,63,65,67,69,71,73,75,-1,-1,-1,77,-1,-1,79,81,83,85,87,89,91,93,95,-1,-1,97,99,-1,-1,-1,-1,-1,-1,-1,-1,-1,-1,-1,-1,-1,-1,-1,-1,-1,-1,-1,-1,-1,-1,-1,-1,-1,-1,-1,-1,-1,-1,-1,-1,-1,-1,-1,-1,-1,-1,-1,-1,-1,-1],"loss_changes":[1.0771272E4,1.669906E2,1.179669E3,7.1315186E1,2.3912888E0,4.0438965E1,2.4330664E2,1.4821777E0,2.9922832E1,2.1729698E0,2.0143814E0,2.1455078E1,7.4329224E0,5.0418945E1,6.7036133E0,1.8017578E-1,1.1545258E0,3.2853012E0,1.8686129E1,1.1336403E0,2.0927444E-1,8.1023026E-1,6.6313934E-1,1.3080688E1,6.786331E0,5.0687256E0,1.3761902E-1,5.690933E0,4.5879883E1,1.9151917E0,0E0,0E0,3.518982E-1,1.2645416E0,3.401785E-1,2.6592226E0,2.6958237E0,1.1323058E1,7.2877827E0,7.1863174E-1,0E0,0E0,0E0,1.6552448E-1,0E0,0E0,1.0052795E0,5.3814087E0,4.814087E0,1.7619019E0,2.1764803E-1,1.8978539E1,2.1070557E0,3.146637E0,7.627411E-1,0E0,0E0,5.296753E0,3.0190918E1,0E0,0E0,0E0,0E0,0E0,0E0,0E0,0E0,0E0,0E0,0E0,0E0,0E0,0E0,0E0,0E0,0E0,0E0,0E0,0E0,0E0,0E0,0E0,0E0,0E0,0E0,0E0,0E0,0E0,0E0,0E0,0E0,0E0,0E0,0E0,0E0,0E0,0E0,0E0,0E0,0E0,0E0],"parents":[2147483647,0,0,1,1,2,2,3,3,4,4,5,5,6,6,7,7,8,8,9,9,10,10,11,11,12,12,13,13,14,14,15,15,16,16,17,17,18,18,19,19,20,20,21,21,22,22,23,23,24,24,25,25,26,26,27,27,28,28,29,29,32,32,33,33,34,34,35,35,36,36,37,37,38,38,39,39,43,43,46,46,47,47,48,48,49,49,50,50,51,51,52,52,53,53,54,54,57,57,58,58],"right_children":[2,4,6,8,10,12,14,16,18,20,22,24,26,28,30,32,34,36,38,40,42,44,46,48,50,52,54,56,58,60,-1,-1,62,64,66,68,70,72,74,76,-1,-1,-1,78,-1,-1,80,82,84,86,88,90,92,94,96,-1,-1,98,100,-1,-1,-1,-1,-1,-1,-1,-1,-1,-1,-1,-1,-1,-1,-1,-1,-1,-1,-1,-1,-1,-1,-1,-1,-1,-1,-1,-1,-1,-1,-1,-1,-1,-1,-1,-1,-1,-1,-1,-1,-1,-1],"split_conditions":[1.27E0,1E0,2.75E0,5E-2,1.46E0,2.12E0,5.68E0,2.6964286E-2,2.7E-1,1.27E0,1.4166666E0,4.51E0,2.09375E0,2.0833333E-1,6.15E0,5.952381E-3,3.02E0,2.2E-1,1.489881E-1,2.7483332E0,1.05E0,2.43E0,4E0,1.7708334E0,2.5E1,3.3333334E-1,3.1693451E0,7E0,3.02E0,2.2E1,2.1761476E-1,-7.6879137E-3,1.25E-3,5.7375E-1,6.75E0,9.166666E-3,1.5E0,2.1666666E-2,2E-2,1.05E0,-1.4981821E-2,6.9736126E-3,-1.3901668E-2,2.7E1,-1.0088422E-2,6.3307144E-2,2.18E0,3.5833333E-2,2.3E-1,7.083333E-1,2.2E1,6E0,3.690476E-1,3.05E0,2.37E0,5.299462E-2,2.5658485E-1,2.75E0,7.083333E-1,1.6832583E-1,7.523514E-2,-7.231547E-3,-7.7970824E-3,-6.9704712E-3,-3.862377E-3,-1.2740168E-2,-5.114415E-3,2.6067987E-2,-4.865154E-3,2.1460546E-2,7.092958E-2,1.4759314E-2,-3.3721083E-3,9.282187E-2,1.3784373E-2,2.3982598E-2,3.1804726E-2,2.8672665E-2,1.258418E-2,4.0972997E-2,1.8517783E-2,-1.5592948E-2,4.709814E-2,1.9002141E-2,5.636802E-2,3.5513587E-2,1.6000344E-1,1.7057355E-2,5.6899775E-2,-7.2177115E-4,1.2259201E-1,2.4368374E-2,6.412371E-2,8.011407E-2,1.9563189E-2,5.217096E-2,1.0529748E-1,7.293782E-2,9.276449E-2,4.3203365E-2,1.1165488E-1],"split_indices":[5,5,5,5,6,5,5,9,5,6,8,6,9,8,5,9,6,5,9,8,5,6,2,8,2,9,9,2,5,0,0,0,8,8,6,8,6,8,8,5,0,0,0,2,0,0,6,9,6,8,0,2,9,6,5,0,0,6,8,0,0,0,0,0,0,0,0,0,0,0,0,0,0,0,0,0,0,0,0,0,0,0,0,0,0,0,0,0,0,0,0,0,0,0,0,0,0,0,0,0,0],"split_type":[0,0,0,0,0,0,0,0,0,0,0,0,0,0,0,0,0,0,0,0,0,0,0,0,0,0,0,0,0,0,0,0,0,0,0,0,0,0,0,0,0,0,0,0,0,0,0,0,0,0,0,0,0,0,0,0,0,0,0,0,0,0,0,0,0,0,0,0,0,0,0,0,0,0,0,0,0,0,0,0,0,0,0,0,0,0,0,0,0,0,0,0,0,0,0,0,0,0,0,0,0],"sum_hessian":[4.9205E4,4.5365E4,3.84E3,4.5067E4,2.98E2,2.116E3,1.724E3,4.3525E4,1.542E3,1.73E2,1.25E2,1.716E3,4E2,1.65E3,7.4E1,3.0234E4,1.3291E4,2.34E2,1.308E3,1.69E2,4E0,4.6E1,7.9E1,1.706E3,1E1,3.1E2,9E1,7E0,1.643E3,2.6E1,4.8E1,1.7264E4,1.297E4,1.3162E4,1.29E2,3.1E1,2.03E2,1.119E3,1.89E2,1.68E2,1E0,1E0,3E0,4.5E1,1E0,5E0,7.4E1,8.45E2,8.61E2,7E0,3E0,1.7E1,2.93E2,6.8E1,2.2E1,1E0,6E0,3.39E2,1.304E3,2.3E1,3E0,8.522E3,4.448E3,1.2822E4,3.4E2,1.1E2,1.9E1,9E0,2.2E1,2.01E2,2E0,9.3E1,1.026E3,2E0,1.87E2,9.6E1,7.2E1,4.1E1,4E0,6.6E1,8E0,3E0,8.42E2,1E1,8.51E2,1E0,6E0,2E0,1E0,4E0,1.3E1,5E0,2.88E2,6.5E1,3E0,4E0,1.8E1,6.6E1,2.73E2,1.8E1,1.286E3],"tree_param":{"num_deleted":"0","num_feature":"10","num_nodes":"101","size_leaf_vector":"1"}},{"base_weights":[3.9552676E-4,-1.3019836E-1,1.5027397E0,-1.4001253E-1,1.20352566E-1,1.0260038E0,2.1193388E0,-1.4422984E-1,-1.3289958E-1,3.8393322E-1,1.4735081E-2,9.629543E-1,1.3212202E0,2.036447E0,4.066013E0,-7.296275E-3,-1.4132862E-1,-1.3202074E-1,-2.2941259E-1,1.9365902E0,3.6058772E-1,3.358038E-1,-4.3768458E-2,9.5373666E-1,2.403027E0,1.2748654E0,1.9175876E0,1.923117E0,2.314257E0,3.5408683E0,2.3341258E-1,2.6607225E-3,-1.4155711E-1,-1.49514E-1,-1.2924649E-1,-2.4791886E-1,-9.36384E-2,1.6082661E-1,1.7250061E-1,5.3980523E-1,2.7152544E-1,6.0284205E-2,1.8597765E-2,1.3248998E-1,-7.7950716E-2,8.833575E-1,1.0892022E0,2.6025121E0,1.0204436E-2,1.1110508E0,1.402819E0,1.0016824E0,1.0192925E-1,4.4868474E0,1.9061203E0,1.0674584E0,2.3361871E0,2.4231727E0,1.9349588E-1,9.64149E-3,-7.4870302E-3,-6.9658863E-3,-7.3770336E-3,-7.547202E-3,5.1005734E-3,-6.5300534E-3,8.090604E-4,-1.0246563E-2,-1.349008E-2,-8.241538E-3,2.9695604E-2,1.08306E-2,1.0041625E-3,6.3220486E-2,2.1322457E-2,1.9106483E-2,-2.1981623E-3,1.8123921E-2,-7.993742E-3,1.0182749E-2,3.1133457E-3,-8.079161E-3,-5.7360233E-4,3.710776E-2,4.6405602E-2,1.2121769E-2,5.485474E-2,1.478722E-1,3.9426167E-2,1.8063301E-2,5.7359274E-2,1.24453835E-1,6.722972E-2,7.6998875E-2,-2.8787447E-2,5.1669754E-2,2.445095E-1,8.790305E-2,1.04313314E-1,1.3678275E-1,-2.503075E-2,1.10986434E-1,1.3560574E-1,1.3787302E-1,5.3261615E-2],"categories":[],"categories_nodes":[],"categories_segments":[],"categories_sizes":[],"default_left":[0,0,0,0,0,0,0,0,0,0,0,0,0,0,0,0,0,0,0,0,0,0,0,0,0,0,0,0,0,0,0,0,0,0,0,0,0,0,0,0,0,0,0,0,0,0,0,0,0,0,0,0,0,0,0,0,0,0,0,0,0,0,0,0,0,0,0,0,0,0,0,0,0,0,0,0,0,0,0,0,0,0,0,0,0,0,0,0,0,0,0,0,0,0,0,0,0,0,0,0,0,0,0,0,0],"id":9,"left_children":[1,3,5,7,9,11,13,15,17,19,21,23,25,27,29,-1,31,33,35,37,39,41,43,45,47,49,51,53,55,57,-1,59,61,63,65,67,69,-1,71,73,75,77,-1,79,81,83,85,87,-1,89,91,93,-1,95,97,99,101,103,-1,-1,-1,-1,-1,-1,-1,-1,-1,-1,-1,-1,-1,-1,-1,-1,-1,-1,-1,-1,-1,-1,-1,-1,-1,-1,-1,-1,-1,-1,-1,-1,-1,-1,-1,-1,-1,-1,-1,-1,-1,-1,-1,-1,-1,-1,-1],"loss_changes":[9.648573E3,1.11272156E2,1.1539492E3,1.2868652E0,4.74872E1,4.0049316E1,2.6829688E2,1.1383057E-1,1.3454285E0,1.6990509E1,2.2911976E1,2.2039429E1,8.281372E0,4.7371582E1,5.2923584E0,0E0,3.330078E-1,7.608032E-1,3.4112358E-1,1.5250673E1,7.546879E0,1.8501396E0,6.2280364E0,1.6418213E1,4.2940636E0,6.05011E0,8.393631E-1,4.2648438E1,1.0411865E1,5.701416E0,0E0,5.215688E-1,1.1470032E-1,8.045502E-1,2.7368011E0,6.417608E-2,1.0279135E0,0E0,2.2543073E-2,1.2520786E1,1.13225765E1,1.5881591E0,0E0,8.268864E-1,4.807353E0,6.9261475E0,3.8709717E0,4.106407E0,0E0,4.0288696E0,9.302582E0,5.132257E0,0E0,4.6969604E0,2.7511719E1,2.7528057E1,1.4250244E1,2.5099792E0,0E0,0E0,0E0,0E0,0E0,0E0,0E0,0E0,0E0,0E0,0E0,0E0,0E0,0E0,0E0,0E0,0E0,0E0,0E0,0E0,0E0,0E0,0E0,0E0,0E0,0E0,0E0,0E0,0E0,0E0,0E0,0E0,0E0,0E0,0E0,0E0,0E0,0E0,0E0,0E0,0E0,0E0,0E0,0E0,0E0,0E0,0E0],"parents":[2147483647,0,0,1,1,2,2,3,3,4,4,5,5,6,6,7,7,8,8,9,9,10,10,11,11,12,12,13,13,14,14,16,16,17,17,18,18,19,19,20,20,21,21,22,22,23,23,24,24,25,25,26,26,27,27,28,28,29,29,31,31,32,32,33,33,34,34,35,35,36,36,38,38,39,39,40,40,41,41,43,43,44,44,45,45,46,46,47,47,49,49,50,50,51,51,53,53,54,54,55,55,56,56,57,57],"right_children":[2,4,6,8,10,12,14,16,18,20,22,24,26,28,30,-1,32,34,36,38,40,42,44,46,48,50,52,54,56,58,-1,60,62,64,66,68,70,-1,72,74,76,78,-1,80,82,84,86,88,-1,90,92,94,-1,96,98,100,102,104,-1,-1,-1,-1,-1,-1,-1,-1,-1,-1,-1,-1,-1,-1,-1,-1,-1,-1,-1,-1,-1,-1,-1,-1,-1,-1,-1,-1,-1,-1,-1,-1,-1,-1,-1,-1,-1,-1,-1,-1,-1,-1,-1,-1,-1,-1,-1],"split_conditions":[1.25E0,5E-2,2.75E0,2.3809524E-2,6E0,2.12E0,5.68E0,5.952381E-3,2.78E0,5.952381E-3,2.7E-1,4.51E0,3.1693451E0,3.98E0,6.75E0,-7.296275E-3,4E0,5E0,6.75E0,1E1,1E1,2.2E-1,3.2083333E-2,1.8229166E0,1.96E0,1.6E1,2.37E0,1.6666667E-1,7.083333E-1,3.1354167E0,2.3341258E-1,8E0,1.25E-3,2.53E0,5.0208336E-1,4.7619048E-1,2E1,1.6082661E-1,2.2E1,5.7375E-1,5E0,9.166666E-3,1.8597765E-2,5E-1,5.0833333E-2,1.5116667E0,6.4898807E-1,2E-2,1.0204436E-2,8.333333E-1,2.559524E-1,3.52E0,1.0192925E-1,7E0,3.375E0,8.3333336E-2,4.04E0,1.7E1,1.9349588E-1,9.64149E-3,-7.4870302E-3,-6.9658863E-3,-7.3770336E-3,-7.547202E-3,5.1005734E-3,-6.5300534E-3,8.090604E-4,-1.0246563E-2,-1.349008E-2,-8.241538E-3,2.9695604E-2,1.08306E-2,1.0041625E-3,6.3220486E-2,2.1322457E-2,1.9106483E-2,-2.1981623E-3,1.8123921E-2,-7.993742E-3,1.0182749E-2,3.1133457E-3,-8.079161E-3,-5.7360233E-4,3.710776E-2,4.6405602E-2,1.2121769E-2,5.485474E-2,1.478722E-1,3.9426167E-2,1.8063301E-2,5.7359274E-2,1.24453835E-1,6.722972E-2,7.6998875E-2,-2.8787447E-2,5.1669754E-2,2.445095E-1,8.790305E-2,1.04313314E-1,1.3678275E-1,-2.503075E-2,1.10986434E-1,1.3560574E-1,1.3787302E-1,5.3261615E-2],"split_indices":[5,5,5,9,3,5,5,9,6,9,5,6,9,5,5,0,3,3,6,0,2,5,8,8,5,2,5,8,8,8,0,0,8,6,8,9,0,0,2,8,3,8,0,5,8,8,9,7,0,8,9,7,0,2,8,9,5,2,0,0,0,0,0,0,0,0,0,0,0,0,0,0,0,0,0,0,0,0,0,0,0,0,0,0,0,0,0,0,0,0,0,0,0,0,0,0,0,0,0,0,0,0,0,0,0],"split_type":[0,0,0,0,0,0,0,0,0,0,0,0,0,0,0,0,0,0,0,0,0,0,0,0,0,0,0,0,0,0,0,0,0,0,0,0,0,0,0,0,0,0,0,0,0,0,0,0,0,0,0,0,0,0,0,0,0,0,0,0,0,0,0,0,0,0,0,0,0,0,0,0,0,0,0,0,0,0,0,0,0,0,0,0,0,0,0,0,0,0,0,0,0,0,0,0,0,0,0,0,0,0,0,0,0],"sum_hessian":[4.9176E4,4.5244E4,3.932E3,4.3539E4,1.705E3,2.219E3,1.713E3,2.7321E4,1.6218E4,4.87E2,1.218E3,1.832E3,3.87E2,1.645E3,6.8E1,1.7212E4,1.0109E4,1.6074E4,1.44E2,6E0,4.81E2,1.87E2,1.031E3,1.822E3,1E1,3.62E2,2.5E1,1.174E3,4.71E2,4E1,2.8E1,1.6E1,1.0093E4,2.193E3,1.3881E4,1.26E2,1.8E1,3E0,3E0,1.58E2,3.23E2,2.2E1,1.65E2,1.67E2,8.64E2,1.204E3,6.18E2,9E0,1E0,1.63E2,1.99E2,4E0,2.1E1,6E0,1.168E3,9E0,4.62E2,1.1E1,2.9E1,7E0,9E0,7.362E3,2.731E3,2.181E3,1.2E1,1.3753E4,1.28E2,4.6E1,8E1,1.7E1,1E0,2E0,1E0,2E1,1.38E2,2.39E2,8.4E1,9E0,1.3E1,8.2E1,8.5E1,3.82E2,4.82E2,2.94E2,9.1E2,6E0,6.12E2,7E0,2E0,8E0,1.55E2,8E0,1.91E2,3E0,1E0,1E0,5E0,6.47E2,5.21E2,4E0,5E0,3.58E2,1.04E2,8E0,3E0],"tree_param":{"num_deleted":"0","num_feature":"10","num_nodes":"105","size_leaf_vector":"1"}},{"base_weights":[2.0084556E-3,-1.2137613E-1,1.4473153E0,-1.3305536E-1,1.573412E-1,9.9022174E-1,2.0095837E0,-1.3633606E-1,-1.2558287E-1,4.3224153E-1,1.6792169E-2,9.4324297E-1,1.3350279E0,1.934354E0,3.7914248E0,-6.9033154E-3,-1.3241604E-1,-1.4322808E-1,-1.2198827E-1,1.6644622E0,4.1531718E-1,3.2469866E-1,-4.0143143E-2,8.72226E-1,1.06287E0,1.2625986E0,1.7365438E0,4.37977E0,1.9213566E0,1.6911912E-1,2.188022E-1,-1.2581885E-1,-1.4135578E-1,-1.412243E-1,-2.5850075E-1,-1.23161316E-1,-4.4133335E-2,2.563638E0,1.2437697E-1,2.9623032E-1,5.6936884E-1,1.0448244E-1,1.7662726E-2,1.2806085E-1,-7.381594E-2,-9.9898614E-2,8.7975705E-1,1.0718904E0,6.400656E-1,1.2769691E0,-1.9294244E-1,1.8591588E0,5.81063E-2,5.0378013E-2,2.3587885E-1,1.736763E0,2.0725827E0,-6.422778E-3,-5.8091357E-3,-7.094024E-3,-5.5456357E-3,-7.1082697E-3,1.4015656E-3,-8.999306E-3,-1.5487536E-2,-6.078826E-3,-7.0828744E-3,-4.1515646E-3,1.3907308E-2,1.0863513E-2,1.5479562E-1,7.6796E-3,9.182971E-4,2.1731531E-2,7.805885E-3,-1.5746957E-2,2.9209245E-2,1.7646505E-2,-7.633605E-3,9.641397E-3,2.9728056E-3,-7.7118203E-3,-2.3361563E-4,-1.6212797E-2,9.465492E-3,3.3485733E-2,4.4473685E-2,5.0226357E-2,5.7172805E-2,-2.4406541E-2,4.1151695E-2,1.9607084E-2,6.501912E-2,1.3649677E-2,-2.812036E-2,4.8062027E-2,9.8438E-2,8.308738E-2,1.15249075E-1,9.943289E-2,1.1142631E-1],"categories":[],"categories_nodes":[],"categories_segments":[],"categories_sizes":[],"default_left":[0,0,0,0,0,0,0,0,0,0,0,0,0,0,0,0,0,0,0,0,0,0,0,0,0,0,0,0,0,0,0,0,0,0,0,0,0,0,0,0,0,0,0,0,0,0,0,0,0,0,0,0,0,0,0,0,0,0,0,0,0,0,0,0,0,0,0,0,0,0,0,0,0,0,0,0,0,0,0,0,0,0,0,0,0,0,0,0,0,0,0,0,0,0,0,0,0,0,0,0,0],"id":10,"left_children":[1,3,5,7,9,11,13,15,17,19,21,23,25,27,29,-1,31,33,35,37,39,41,43,45,47,49,51,53,55,-1,-1,57,59,61,63,65,67,69,71,73,75,77,-1,79,81,83,85,87,89,91,93,95,-1,-1,-1,97,99,-1,-1,-1,-1,-1,-1,-1,-1,-1,-1,-1,-1,-1,-1,-1,-1,-1,-1,-1,-1,-1,-1,-1,-1,-1,-1,-1,-1,-1,-1,-1,-1,-1,-1,-1,-1,-1,-1,-1,-1,-1,-1,-1,-1],"loss_changes":[8.747014E3,1.4713019E2,9.8955225E2,1.0461426E0,7.023477E1,3.3243652E1,2.2443408E2,1.8609619E-1,8.226929E-1,1.2134254E1,2.1120058E1,1.5027588E1,5.1650696E0,4.437793E1,1.6987915E0,0E0,5.278168E-1,4.799652E-1,1.0001678E0,1.0759602E1,1.098542E1,1.1453228E0,5.7696385E0,8.756165E0,1.9644775E0,4.8062744E0,3.7498474E-1,4.3600006E0,4.2572754E1,0E0,0E0,1.2055206E-1,4.6875E-2,3.5441208E-1,9.3132496E-2,3.007202E-1,2.091537E0,5.571907E0,9.567596E-3,6.622261E0,3.642891E0,1.52334E0,0E0,7.439015E-1,4.714637E0,7.1024513E-1,1.8024292E0,2.1247559E0,3.9109583E0,3.9648743E0,6.699743E-1,8.631134E-1,0E0,0E0,0E0,2.8181152E1,7.399414E0,0E0,0E0,0E0,0E0,0E0,0E0,0E0,0E0,0E0,0E0,0E0,0E0,0E0,0E0,0E0,0E0,0E0,0E0,0E0,0E0,0E0,0E0,0E0,0E0,0E0,0E0,0E0,0E0,0E0,0E0,0E0,0E0,0E0,0E0,0E0,0E0,0E0,0E0,0E0,0E0,0E0,0E0,0E0,0E0],"parents":[2147483647,0,0,1,1,2,2,3,3,4,4,5,5,6,6,7,7,8,8,9,9,10,10,11,11,12,12,13,13,14,14,16,16,17,17,18,18,19,19,20,20,21,21,22,22,23,23,24,24,25,25,26,26,27,27,28,28,31,31,32,32,33,33,34,34,35,35,36,36,37,37,38,38,39,39,40,40,41,41,43,43,44,44,45,45,46,46,47,47,48,48,49,49,50,50,51,51,55,55,56,56],"right_children":[2,4,6,8,10,12,14,16,18,20,22,24,26,28,30,-1,32,34,36,38,40,42,44,46,48,50,52,54,56,-1,-1,58,60,62,64,66,68,70,72,74,76,78,-1,80,82,84,86,88,90,92,94,96,-1,-1,-1,98,100,-1,-1,-1,-1,-1,-1,-1,-1,-1,-1,-1,-1,-1,-1,-1,-1,-1,-1,-1,-1,-1,-1,-1,-1,-1,-1,-1,-1,-1,-1,-1,-1,-1,-1,-1,-1,-1,-1,-1,-1,-1,-1,-1,-1],"split_conditions":[1.29E0,5E-2,2.75E0,2.6964286E-2,6E0,2.27E0,5.68E0,6.25E-3,5E0,5.952381E-3,2.7E-1,1.83625E0,3.0104167E0,2.0833333E-1,6.75E0,-6.9033154E-3,1.25E-3,3.3570237E0,4.1666666E-1,1.8E1,1.0945834E0,2.2E-1,3.2083333E-2,3.5833333E-2,3.0625E0,3.73E0,3.8133333E0,7E0,3.375E0,1.6911912E-1,2.188022E-1,1.9523809E-2,8.3333336E-2,2E-2,3E0,1.3690476E-1,2.02E0,1E0,5E0,2.2E1,2.2E-1,9.166666E-3,1.7662726E-2,5E-1,5.0833333E-2,1.96E0,8.333333E-1,2.0416667E0,9E0,5.0208336E-1,1E0,2.37E0,5.81063E-2,5.0378013E-2,2.3587885E-1,4E0,3.73E0,-6.422778E-3,-5.8091357E-3,-7.094024E-3,-5.5456357E-3,-7.1082697E-3,1.4015656E-3,-8.999306E-3,-1.5487536E-2,-6.078826E-3,-7.0828744E-3,-4.1515646E-3,1.3907308E-2,1.0863513E-2,1.5479562E-1,7.6796E-3,9.182971E-4,2.1731531E-2,7.805885E-3,-1.5746957E-2,2.9209245E-2,1.7646505E-2,-7.633605E-3,9.641397E-3,2.9728056E-3,-7.7118203E-3,-2.3361563E-4,-1.6212797E-2,9.465492E-3,3.3485733E-2,4.4473685E-2,5.0226357E-2,5.7172805E-2,-2.4406541E-2,4.1151695E-2,1.9607084E-2,6.501912E-2,1.3649677E-2,-2.812036E-2,4.8062027E-2,9.8438E-2,8.308738E-2,1.15249075E-1,9.943289E-2,1.1142631E-1],"split_indices":[5,5,5,9,3,5,5,9,3,9,5,8,8,8,5,0,8,9,8,2,8,5,8,9,8,7,8,2,8,0,0,9,8,5,2,9,7,1,1,2,5,8,0,5,8,5,8,8,2,8,1,5,0,0,0,5,8,0,0,0,0,0,0,0,0,0,0,0,0,0,0,0,0,0,0,0,0,0,0,0,0,0,0,0,0,0,0,0,0,0,0,0,0,0,0,0,0,0,0,0,0],"split_type":[0,0,0,0,0,0,0,0,0,0,0,0,0,0,0,0,0,0,0,0,0,0,0,0,0,0,0,0,0,0,0,0,0,0,0,0,0,0,0,0,0,0,0,0,0,0,0,0,0,0,0,0,0,0,0,0,0,0,0,0,0,0,0,0,0,0,0,0,0,0,0,0,0,0,0,0,0,0,0,0,0,0,0,0,0,0,0,0,0,0,0,0,0,0,0,0,0,0,0,0,0],"sum_hessian":[4.9048E4,4.5191E4,3.857E3,4.3374E4,1.817E3,2.129E3,1.728E3,3.0129E4,1.3245E4,6.14E2,1.203E3,1.877E3,2.52E2,1.66E3,6.8E1,2.0879E4,9.25E3,2.235E3,1.101E4,7E0,6.07E2,1.87E2,1.016E3,1.183E3,6.94E2,2.17E2,3.5E1,7E0,1.653E3,4.4E1,2.4E1,5.331E3,3.919E3,2.199E3,3.6E1,1.0846E4,1.64E2,4E0,3E0,3.44E2,2.63E2,2.2E1,1.65E2,1.69E2,8.47E2,9E0,1.174E3,6.78E2,1.6E1,2.15E2,2E0,2.7E1,8E0,1E0,6E0,7.5E2,9.03E2,4.176E3,1.155E3,3.849E3,7E1,2.187E3,1.2E1,1.6E1,2E1,9.997E3,8.49E2,1.47E2,1.7E1,1E0,3E0,2E0,1E0,1.72E2,1.72E2,4E0,2.59E2,1.1E1,1.1E1,8.6E1,8.3E1,3.91E2,4.56E2,5E0,4E0,5.5E1,1.119E3,3.57E2,3.21E2,2E0,1.4E1,6E0,2.09E2,1E0,1E0,4E0,2.3E1,6.66E2,8.4E1,5.96E2,3.07E2],"tree_param":{"num_deleted":"0","num_feature":"10","num_nodes":"101","size_leaf_vector":"1"}},{"base_weights":[-1.5626216E-3,-1.1754661E-1,1.3512045E0,-1.2634984E-1,1.0489304E-1,9.3139607E-1,1.8905495E0,-1.2942307E-1,-1.19297296E-1,2.8913042E-2,3.7234655E-1,8.8316184E-1,1.3030115E0,1.823056E0,3.428428E0,-6.5494813E-3,-1.2585124E-1,-1.1844741E-1,-2.0574269E-1,3.3118057E-1,-2.6336994E-2,4.7435763E-1,1.8583876E-1,8.044402E-1,9.903299E-1,1.2380221E0,9.424753E-2,2.0982818E-1,1.8101778E0,2.7857172E0,1.851598E-1,-1.1987076E-1,-1.3396122E-1,-1.1986294E-1,-7.906498E-2,-2.2410868E-1,-6.432183E-2,3.120038E-1,1.2264005E0,1.23445764E-1,-5.6456048E-2,1.7379215E0,4.5680597E-1,4.4176795E-2,3.93665E-1,1.1444974E-1,7.9972863E-1,9.775376E-1,2.0244968E0,1.254596E0,2.5453964E-1,1.6668389E0,1.9788725E0,1.4726691E-1,6.056869E-2,-6.1119953E-3,-5.561897E-3,-6.7191483E-3,-5.462643E-3,-5.822809E-3,-6.715613E-3,-6.462682E-3,2.2780719E-4,-1.202744E-2,-9.135995E-3,-7.31462E-3,2.913092E-2,6.4155175E-3,1.6964996E-2,7.637116E-2,8.0833025E-3,9.173246E-3,2.875907E-3,6.7124896E-2,-3.1171362E-3,1.0800365E-1,2.2340458E-2,6.524669E-2,2.1675264E-2,6.4381855E-3,-1.7111449E-2,2.1751998E-3,2.3525588E-2,-7.1610883E-3,4.0247735E-2,4.2640064E-2,5.1342852E-2,1.1164782E-1,8.920533E-3,6.0094994E-2,8.291376E-2,5.900274E-2,-3.7791107E-2,2.6689453E-2,8.462841E-2,9.51445E-2,1.0622978E-1],"categories":[],"categories_nodes":[],"categories_segments":[],"categories_sizes":[],"default_left":[0,0,0,0,0,0,0,0,0,0,0,0,0,0,0,0,0,0,0,0,0,0,0,0,0,0,0,0,0,0,0,0,0,0,0,0,0,0,0,0,0,0,0,0,0,0,0,0,0,0,0,0,0,0,0,0,0,0,0,0,0,0,0,0,0,0,0,0,0,0,0,0,0,0,0,0,0,0,0,0,0,0,0,0,0,0,0,0,0,0,0,0,0,0,0,0,0],"id":11,"left_children":[1,3,5,7,9,11,13,15,17,19,21,23,25,27,29,-1,31,33,35,37,39,41,43,45,47,49,-1,-1,51,53,-1,55,57,59,61,63,65,67,69,71,73,75,77,79,81,-1,83,85,87,89,91,93,95,-1,-1,-1,-1,-1,-1,-1,-1,-1,-1,-1,-1,-1,-1,-1,-1,-1,-1,-1,-1,-1,-1,-1,-1,-1,-1,-1,-1,-1,-1,-1,-1,-1,-1,-1,-1,-1,-1,-1,-1,-1,-1,-1,-1],"loss_changes":[7.685245E3,8.835492E1,8.740376E2,9.251709E-1,3.4900917E1,3.787097E1,1.6937402E2,1.5255737E-1,9.442444E-1,2.2370413E1,7.141674E0,1.5485718E1,7.0457153E0,4.2012695E1,2.0457153E0,0E0,4.3196106E-1,7.184906E-1,3.1544685E-1,3.1710148E0,5.1182895E0,4.6396217E0,3.9865947E0,5.98938E0,8.776489E0,3.3644714E0,0E0,0E0,3.5777344E1,2.7145386E0,0E0,9.5329285E-2,2.60849E-2,6.0472107E-1,1.9143445E0,3.225565E-2,9.3371373E-1,9.793453E-1,1.0351048E0,7.4126244E-1,7.857709E0,6.699953E-1,4.2364655E0,2.724226E0,1.4595118E0,0E0,5.614868E0,4.076599E0,3.0651245E0,2.72937E0,5.567437E0,2.4750732E1,4.1174316E0,0E0,0E0,0E0,0E0,0E0,0E0,0E0,0E0,0E0,0E0,0E0,0E0,0E0,0E0,0E0,0E0,0E0,0E0,0E0,0E0,0E0,0E0,0E0,0E0,0E0,0E0,0E0,0E0,0E0,0E0,0E0,0E0,0E0,0E0,0E0,0E0,0E0,0E0,0E0,0E0,0E0,0E0,0E0,0E0],"parents":[2147483647,0,0,1,1,2,2,3,3,4,4,5,5,6,6,7,7,8,8,9,9,10,10,11,11,12,12,13,13,14,14,16,16,17,17,18,18,19,19,20,20,21,21,22,22,23,23,24,24,25,25,28,28,29,29,31,31,32,32,33,33,34,34,35,35,36,36,37,37,38,38,39,39,40,40,41,41,42,42,43,43,44,44,46,46,47,47,48,48,49,49,50,50,51,51,52,52],"right_children":[2,4,6,8,10,12,14,16,18,20,22,24,26,28,30,-1,32,34,36,38,40,42,44,46,48,50,-1,-1,52,54,-1,56,58,60,62,64,66,68,70,72,74,76,78,80,82,-1,84,86,88,90,92,94,96,-1,-1,-1,-1,-1,-1,-1,-1,-1,-1,-1,-1,-1,-1,-1,-1,-1,-1,-1,-1,-1,-1,-1,-1,-1,-1,-1,-1,-1,-1,-1,-1,-1,-1,-1,-1,-1,-1,-1,-1,-1,-1,-1,-1],"split_conditions":[1.25E0,5E-2,2.75E0,2.9761905E-2,1.489881E-1,2.27E0,5.68E0,1.1904762E-2,3.02E0,2.7E-1,1.6E1,1.79625E0,3.27E0,2.0833333E-1,6.15E0,-6.5494813E-3,1.25E-3,4.1666666E-1,6.75E0,2.5E-1,3.2083333E-2,2E-2,1E0,8.3333336E-2,4.51E0,3.73E0,9.424753E-2,2.0982818E-1,3.4783332E0,2E1,1.851598E-1,1.9523809E-2,8.3333336E-2,1.1904762E-1,3E-2,4.75E0,2E1,2.2E-1,7E0,5E-1,5.952381E-3,1E0,2.3E-1,7.8E-1,9.019643E-1,1.1444974E-1,3.5833333E-2,1.96E0,1.96E0,2.75E0,1E1,7.083333E-1,3.8133333E0,1.4726691E-1,6.056869E-2,-6.1119953E-3,-5.561897E-3,-6.7191483E-3,-5.462643E-3,-5.822809E-3,-6.715613E-3,-6.462682E-3,2.2780719E-4,-1.202744E-2,-9.135995E-3,-7.31462E-3,2.913092E-2,6.4155175E-3,1.6964996E-2,7.637116E-2,8.0833025E-3,9.173246E-3,2.875907E-3,6.7124896E-2,-3.1171362E-3,1.0800365E-1,2.2340458E-2,6.524669E-2,2.1675264E-2,6.4381855E-3,-1.7111449E-2,2.1751998E-3,2.3525588E-2,-7.1610883E-3,4.0247735E-2,4.2640064E-2,5.1342852E-2,1.1164782E-1,8.920533E-3,6.0094994E-2,8.291376E-2,5.900274E-2,-3.7791107E-2,2.6689453E-2,8.462841E-2,9.51445E-2,1.0622978E-1],"split_indices":[5,5,5,9,9,5,5,9,6,5,0,8,6,8,5,0,8,8,6,8,8,8,5,8,6,7,0,0,8,0,0,9,8,9,6,6,0,5,0,5,9,0,5,5,9,0,9,5,5,7,0,8,8,0,0,0,0,0,0,0,0,0,0,0,0,0,0,0,0,0,0,0,0,0,0,0,0,0,0,0,0,0,0,0,0,0,0,0,0,0,0,0,0,0,0,0,0],"split_type":[0,0,0,0,0,0,0,0,0,0,0,0,0,0,0,0,0,0,0,0,0,0,0,0,0,0,0,0,0,0,0,0,0,0,0,0,0,0,0,0,0,0,0,0,0,0,0,0,0,0,0,0,0,0,0,0,0,0,0,0,0,0,0,0,0,0,0,0,0,0,0,0,0,0,0,0,0,0,0,0,0,0,0,0,0,0,0,0,0,0,0,0,0,0,0,0,0],"sum_hessian":[4.898E4,4.5113E4,3.867E3,4.3396E4,1.717E3,2.176E3,1.691E3,3.0213E4,1.3183E4,1.338E3,3.79E2,1.929E3,2.47E2,1.622E3,6.9E1,2.0977E4,9.236E3,1.3057E4,1.26E2,2.06E2,1.132E3,2.44E2,1.35E2,1.117E3,8.12E2,2.25E2,2.2E1,7E0,1.615E3,2.4E1,4.5E1,5.325E3,3.911E3,1.2602E4,4.55E2,1.11E2,1.5E1,2.03E2,3E0,1.89E2,9.43E2,2E0,2.42E2,8.1E1,5.4E1,2E0,1.115E3,8.04E2,8E0,2.21E2,4E0,8.79E2,7.36E2,2.1E1,3E0,4.168E3,1.157E3,3.841E3,7E1,1.0205E4,2.397E3,2.84E2,1.71E2,7.6E1,3.5E1,1.4E1,1E0,2.7E1,1.76E2,2E0,1E0,9.8E1,9.1E1,3E0,9.4E2,1E0,1E0,5E0,2.37E2,6.7E1,1.4E1,1E1,4.4E1,6E0,1.109E3,2.33E2,5.71E2,7E0,1E0,1.99E2,2.2E1,2E0,2E0,2E1,8.59E2,4.93E2,2.43E2],"tree_param":{"num_deleted":"0","num_feature":"10","num_nodes":"97","size_leaf_vector":"1"}},{"base_weights":[-5.845917E-4,-1.08106256E-1,1.1833098E0,-1.143115E-1,2.658054E-1,8.4317756E-1,1.7442901E0,-1.1744804E-1,-2.0938642E-2,1.8583251E0,2.1872617E-1,2.2395039E0,8.3125424E-1,1.4815303E0,1.9004108E0,-1.18935585E-1,-8.265796E-2,9.6684843E-1,-3.6923267E-2,8.5529876E-1,3.7421923E0,2.03814E-1,1.4110701E-1,1.7964978E0,1.5238014E-1,4.7769484E-1,8.743353E-1,5.9429772E-2,1.5295882E0,1.8070284E0,2.1179686E0,-1.2448548E-1,-1.1312045E-1,1.7881237E0,-8.579983E-2,4.019922E0,1.12521246E-1,-4.2571813E-2,2.6452644E0,8.476939E-2,5.956399E-1,2.106943E-1,2.2800809E-2,5.730634E-2,3.5057223E-1,9.992188E-2,3.4553457E-2,3.5813865E-1,1.2681086E0,7.6433307E-1,1.0013231E0,6.338912E-1,-1.743168E-1,7.783639E-2,7.575839E-1,1.8168923E0,3.9288872E-1,1.3899941E0,2.156243E0,-6.2450184E-3,-5.472577E-3,-5.2257227E-3,-6.1100046E-3,9.127531E-3,1.2498175E-1,8.427232E-3,-5.3178514E-3,5.0181605E-2,2.848119E-1,-5.8385553E-3,2.6113773E-2,-2.421906E-3,1.5766924E-2,3.6378063E-2,1.6201676E-1,1.6764026E-2,6.758722E-2,-2.6545718E-3,1.4114707E-2,2.8826866E-2,1.1514877E-2,7.4068303E-3,4.4665918E-2,7.228509E-2,1.6291833E-2,3.8656767E-2,-9.016274E-3,5.075843E-2,-1.3641528E-2,-5.943483E-3,7.131377E-2,1.0934234E-2,-1.2580024E-2,-4.9890736E-3,4.5301076E-2,5.2823223E-2,9.133545E-2,-5.191225E-3,4.621051E-2,3.1474398E-3,7.813685E-2,1.265617E-1,1.02822356E-1],"categories":[],"categories_nodes":[],"categories_segments":[],"categories_sizes":[],"default_left":[0,0,0,0,0,0,0,0,0,0,0,0,0,0,0,0,0,0,0,0,0,0,0,0,0,0,0,0,0,0,0,0,0,0,0,0,0,0,0,0,0,0,0,0,0,0,0,0,0,0,0,0,0,0,0,0,0,0,0,0,0,0,0,0,0,0,0,0,0,0,0,0,0,0,0,0,0,0,0,0,0,0,0,0,0,0,0,0,0,0,0,0,0,0,0,0,0,0,0,0,0,0,0],"id":12,"left_children":[1,3,5,7,9,11,13,15,17,19,21,23,25,27,29,31,33,35,37,39,41,43,-1,45,-1,47,49,51,53,55,57,59,61,63,65,67,69,71,73,-1,75,-1,-1,77,79,-1,-1,81,83,85,87,89,91,-1,93,95,97,99,101,-1,-1,-1,-1,-1,-1,-1,-1,-1,-1,-1,-1,-1,-1,-1,-1,-1,-1,-1,-1,-1,-1,-1,-1,-1,-1,-1,-1,-1,-1,-1,-1,-1,-1,-1,-1,-1,-1,-1,-1,-1,-1,-1,-1],"loss_changes":[6.257788E3,1.045954E2,7.795044E2,1.2981018E1,5.4774826E1,4.0592896E1,6.052295E1,2.2098389E0,2.2804018E1,3.6480247E1,2.7221771E1,2.042839E0,3.811841E1,3.9548218E1,1.5777832E1,1.3132935E0,1.0510014E1,5.9539124E1,2.162627E1,2.262208E0,8.928871E0,1.531027E1,0E0,2.1906166E0,0E0,2.5722023E1,3.0720703E1,2.796066E0,1.0574585E1,8.799316E0,4.9158936E0,1.1752319E-1,1.5574951E0,2.9708405E0,9.220275E0,1.9564346E1,1.8461032E0,2.9925237E0,1.0659657E0,0E0,2.1059513E0,0E0,0E0,8.907045E0,9.542549E0,0E0,0E0,2.7065765E1,5.553219E0,1.0217407E1,1.8676758E1,3.748396E0,5.106101E-1,0E0,2.7629757E0,3.1240234E0,1.6794417E0,3.798664E0,4.8238525E0,0E0,0E0,0E0,0E0,0E0,0E0,0E0,0E0,0E0,0E0,0E0,0E0,0E0,0E0,0E0,0E0,0E0,0E0,0E0,0E0,0E0,0E0,0E0,0E0,0E0,0E0,0E0,0E0,0E0,0E0,0E0,0E0,0E0,0E0,0E0,0E0,0E0,0E0,0E0,0E0,0E0,0E0,0E0,0E0],"parents":[2147483647,0,0,1,1,2,2,3,3,4,4,5,5,6,6,7,7,8,8,9,9,10,10,11,11,12,12,13,13,14,14,15,15,16,16,17,17,18,18,19,19,20,20,21,21,23,23,25,25,26,26,27,27,28,28,29,29,30,30,31,31,32,32,33,33,34,34,35,35,36,36,37,37,38,38,40,40,43,43,44,44,47,47,48,48,49,49,50,50,51,51,52,52,54,54,55,55,56,56,57,57,58,58],"right_children":[2,4,6,8,10,12,14,16,18,20,22,24,26,28,30,32,34,36,38,40,42,44,-1,46,-1,48,50,52,54,56,58,60,62,64,66,68,70,72,74,-1,76,-1,-1,78,80,-1,-1,82,84,86,88,90,92,-1,94,96,98,100,102,-1,-1,-1,-1,-1,-1,-1,-1,-1,-1,-1,-1,-1,-1,-1,-1,-1,-1,-1,-1,-1,-1,-1,-1,-1,-1,-1,-1,-1,-1,-1,-1,-1,-1,-1,-1,-1,-1,-1,-1,-1,-1,-1,-1],"split_conditions":[1.2083334E0,3.4291667E-1,2.7483332E0,8.416667E-2,1.0119048E-1,2.559524E-1,3.375E0,5.0833333E-2,2.3809524E-2,2E0,6E0,1.8E1,1.04E0,4.7619048E-1,3.8133333E0,6.25E-3,1.1904762E-2,3E0,5.45E0,3E0,5E0,7.083333E-1,1.4110701E-1,5E0,1.5238014E-1,2.5E1,1.8229166E0,1.5E1,4E0,5.53E0,2.54E0,1.25E-3,3.25E-2,4E0,6.333333E-2,2E0,1.5E1,2.21E0,1.1E1,8.476939E-2,1.2E1,2.106943E-1,2.2800809E-2,8.2E-1,5.75E-1,9.992188E-2,3.4553457E-2,2E-2,2E1,2.3407738E0,3.0729167E0,4E0,2E0,7.783639E-2,3E0,2.52125E0,2E0,6E0,3.6130953E0,-6.2450184E-3,-5.472577E-3,-5.2257227E-3,-6.1100046E-3,9.127531E-3,1.2498175E-1,8.427232E-3,-5.3178514E-3,5.0181605E-2,2.848119E-1,-5.8385553E-3,2.6113773E-2,-2.421906E-3,1.5766924E-2,3.6378063E-2,1.6201676E-1,1.6764026E-2,6.758722E-2,-2.6545718E-3,1.4114707E-2,2.8826866E-2,1.1514877E-2,7.4068303E-3,4.4665918E-2,7.228509E-2,1.6291833E-2,3.8656767E-2,-9.016274E-3,5.075843E-2,-1.3641528E-2,-5.943483E-3,7.131377E-2,1.0934234E-2,-1.2580024E-2,-4.9890736E-3,4.5301076E-2,5.2823223E-2,9.133545E-2,-5.191225E-3,4.621051E-2,3.1474398E-3,7.813685E-2,1.265617E-1,1.02822356E-1],"split_indices":[8,8,8,8,9,9,8,8,9,1,7,0,6,9,8,9,9,1,7,0,1,8,0,1,0,2,8,0,6,6,7,8,8,0,8,1,0,7,0,0,0,0,0,7,9,0,0,7,0,9,9,0,1,0,2,9,2,0,9,0,0,0,0,0,0,0,0,0,0,0,0,0,0,0,0,0,0,0,0,0,0,0,0,0,0,0,0,0,0,0,0,0,0,0,0,0,0,0,0,0,0,0,0],"split_type":[0,0,0,0,0,0,0,0,0,0,0,0,0,0,0,0,0,0,0,0,0,0,0,0,0,0,0,0,0,0,0,0,0,0,0,0,0,0,0,0,0,0,0,0,0,0,0,0,0,0,0,0,0,0,0,0,0,0,0,0,0,0,0,0,0,0,0,0,0,0,0,0,0,0,0,0,0,0,0,0,0,0,0,0,0,0,0,0,0,0,0,0,0,0,0,0,0,0,0,0,0,0,0],"sum_hessian":[4.9158E4,4.5066E4,4.092E3,4.4331E4,7.35E2,2.549E3,1.543E3,4.289E4,1.441E3,2E1,7.15E2,2E1,2.529E3,5.79E2,9.64E2,4.1129E4,1.761E3,2.2E1,1.419E3,1.4E1,6E0,7.12E2,3E0,1.5E1,5E0,2.76E2,2.253E3,1.9E1,5.6E2,6.81E2,2.83E2,2.1034E4,2.0095E4,2E0,1.759E3,4E0,1.8E1,1.417E3,2E0,2E0,1.2E1,5E0,1E0,3.57E2,3.55E2,1.2E1,3E0,2.41E2,3.5E1,1.211E3,1.042E3,5E0,1.4E1,5.4E2,2E1,6.76E2,5E0,1.6E1,2.67E2,2.0462E4,5.72E2,1.0323E4,9.772E3,1E0,1E0,1.31E2,1.628E3,2E0,2E0,1.2E1,6E0,1.395E3,2.2E1,1E0,1E0,1E1,2E0,2.4E2,1.17E2,1.22E2,2.33E2,1.74E2,6.7E1,2.9E1,6E0,1.2E3,1.1E1,1.031E3,1.1E1,3E0,2E0,2E0,1.2E1,3E0,1.7E1,1E1,6.66E2,3E0,2E0,2E0,1.4E1,5.1E1,2.16E2],"tree_param":{"num_deleted":"0","num_feature":"10","num_nodes":"103","size_leaf_vector":"1"}},{"base_weights":[1.7753541E-3,-1.043538E-1,1.2520821E0,-1.14564955E-1,1.3353771E-1,8.6460936E-1,1.7281388E0,-1.14265665E-1,-2.2124782E-1,3.6032315E-2,3.8103995E-1,8.0450046E-1,1.1109709E0,1.6399883E0,2.9540465E0,-1.151037E-1,-1.0272498E-1,-4.429009E-2,-2.2696799E-1,3.2531828E-1,-1.67834E-2,4.9024937E-1,2.7528584E-1,7.9778945E-1,1.860888E0,1.0642686E0,1.4206811E0,4.140664E0,1.6280153E0,2.4817553E0,1.8245076E-1,-1.1492918E-1,-1.2712982E-1,-8.0134995E-2,-1.1631175E-1,-5.0930837E-3,2.804485E-2,-8.134189E-3,-2.3946573E-1,8.574218E-1,2.9379553E-1,2.7115962E-1,-4.4416353E-2,1.3663293E0,4.6386367E-1,1.288437E-1,4.644342E-1,7.640874E-1,9.4233817E-1,2.2616866E0,8.5898E-3,9.3213546E-1,1.1714216E0,-1.1946334E-2,1.4586519E0,4.3478683E-2,4.540917E0,1.46119E0,1.741626E0,4.123235E-1,2.535763E0,-5.7536685E-3,-3.3428723E-3,-6.396007E-3,7.984919E-3,-4.8364843E-3,3.9569224E-4,-5.478356E-3,-1.0569863E-2,6.441717E-3,-4.3383534E-3,-9.1629075E-3,-1.3069319E-2,7.56898E-2,1.3304718E-2,1.7206518E-2,8.698386E-3,-6.6905967E-3,1.725345E-2,-2.5714429E-3,2.5433643E-2,8.14482E-2,2.365809E-2,1.2207188E-3,2.5090277E-2,6.868023E-5,1.6319973E-2,2.4334416E-2,-1.4190789E-3,3.1776298E-2,3.9299753E-2,4.8221376E-2,3.0950341E-2,1.3330986E-1,3.493849E-2,5.0326586E-3,4.812486E-2,9.196908E-2,5.403778E-2,7.741591E-2,4.9999367E-2,6.7702495E-2,2.4537401E-1,7.067251E-2,9.682022E-2,8.7652944E-2,6.5209284E-2,5.468619E-2,-2.3761926E-2,1.2798885E-1,2.2570854E-2],"categories":[],"categories_nodes":[],"categories_segments":[],"categories_sizes":[],"default_left":[0,0,0,0,0,0,0,0,0,0,0,0,0,0,0,0,0,0,0,0,0,0,0,0,0,0,0,0,0,0,0,0,0,0,0,0,0,0,0,0,0,0,0,0,0,0,0,0,0,0,0,0,0,0,0,0,0,0,0,0,0,0,0,0,0,0,0,0,0,0,0,0,0,0,0,0,0,0,0,0,0,0,0,0,0,0,0,0,0,0,0,0,0,0,0,0,0,0,0,0,0,0,0,0,0,0,0,0,0,0,0],"id":13,"left_children":[1,3,5,7,9,11,13,15,17,19,21,23,25,27,29,31,33,35,37,39,41,43,45,47,49,51,53,55,57,59,-1,61,63,65,67,-1,69,-1,71,73,75,77,79,81,83,85,87,89,91,93,-1,95,97,-1,99,-1,101,103,105,107,109,-1,-1,-1,-1,-1,-1,-1,-1,-1,-1,-1,-1,-1,-1,-1,-1,-1,-1,-1,-1,-1,-1,-1,-1,-1,-1,-1,-1,-1,-1,-1,-1,-1,-1,-1,-1,-1,-1,-1,-1,-1,-1,-1,-1,-1,-1,-1,-1,-1,-1],"loss_changes":[6.4972266E3,1.09650024E2,7.0516846E2,1.3565063E0,4.4825027E1,3.0411377E1,1.8081006E2,4.0551758E-1,1.1141491E-1,2.0387438E1,5.928444E0,1.0588623E1,4.447235E0,4.1313477E1,2.8362E1,6.9885254E-2,8.9027786E-1,2.3678878E-2,5.423832E-2,3.2034073E0,8.995176E0,5.307022E0,7.3912716E0,7.5324707E0,6.3813095E0,4.0334167E0,3.562355E0,5.216179E0,2.7760742E1,6.889801E0,0E0,2.6715088E-1,1.4873219E-1,1.6138668E0,1.1491642E0,0E0,4.589408E-2,0E0,6.914854E-2,3.866641E0,1.1223087E0,3.0093617E0,4.0249367E0,8.71274E-1,4.172798E0,3.8524666E0,1.2969742E0,3.3843994E0,1.6599426E0,3.1946716E0,0E0,4.119095E0,9.88208E0,0E0,5.080414E-1,0E0,3.6415863E-1,1.2100098E1,2.4450684E0,2.3341348E0,2.2981567E0,0E0,0E0,0E0,0E0,0E0,0E0,0E0,0E0,0E0,0E0,0E0,0E0,0E0,0E0,0E0,0E0,0E0,0E0,0E0,0E0,0E0,0E0,0E0,0E0,0E0,0E0,0E0,0E0,0E0,0E0,0E0,0E0,0E0,0E0,0E0,0E0,0E0,0E0,0E0,0E0,0E0,0E0,0E0,0E0,0E0,0E0,0E0,0E0,0E0,0E0],"parents":[2147483647,0,0,1,1,2,2,3,3,4,4,5,5,6,6,7,7,8,8,9,9,10,10,11,11,12,12,13,13,14,14,15,15,16,16,17,17,18,18,19,19,20,20,21,21,22,22,23,23,24,24,25,25,26,26,27,27,28,28,29,29,31,31,32,32,33,33,34,34,36,36,38,38,39,39,40,40,41,41,42,42,43,43,44,44,45,45,46,46,47,47,48,48,49,49,51,51,52,52,54,54,56,56,57,57,58,58,59,59,60,60],"right_children":[2,4,6,8,10,12,14,16,18,20,22,24,26,28,30,32,34,36,38,40,42,44,46,48,50,52,54,56,58,60,-1,62,64,66,68,-1,70,-1,72,74,76,78,80,82,84,86,88,90,92,94,-1,96,98,-1,100,-1,102,104,106,108,110,-1,-1,-1,-1,-1,-1,-1,-1,-1,-1,-1,-1,-1,-1,-1,-1,-1,-1,-1,-1,-1,-1,-1,-1,-1,-1,-1,-1,-1,-1,-1,-1,-1,-1,-1,-1,-1,-1,-1,-1,-1,-1,-1,-1,-1,-1,-1,-1,-1,-1],"split_conditions":[1.29E0,5E-2,2.75E0,3.02E0,2.6958334E-1,2.12E0,4.76E0,5.291667E-2,1E0,2.1666666E-2,1.3E1,4.51E0,2.7483332E0,2.0833333E-1,6.15E0,2.77E0,1.2E1,3E0,5.0208336E-1,3E0,2.7E-1,2.3E-1,1.25E0,1.9775E0,2.5E1,1.6E1,1E0,7E0,3.2679167E0,3.4291667E-1,1.8245076E-1,2.03E0,3E-2,4.1666666E-1,9.4458336E-1,-5.0930837E-3,9E0,-8.134189E-3,4E0,4E0,4.8E-1,2.2E-1,1E0,2.3E1,4.5E-1,1E0,2.275E0,1.5116667E0,3.02E0,2E-2,8.5898E-3,4.1666666E-1,1.25E0,-1.1946334E-2,3.9070833E0,4.3478683E-2,1.2416667E-1,4E0,5.24E0,1E0,6.05E0,-5.7536685E-3,-3.3428723E-3,-6.396007E-3,7.984919E-3,-4.8364843E-3,3.9569224E-4,-5.478356E-3,-1.0569863E-2,6.441717E-3,-4.3383534E-3,-9.1629075E-3,-1.3069319E-2,7.56898E-2,1.3304718E-2,1.7206518E-2,8.698386E-3,-6.6905967E-3,1.725345E-2,-2.5714429E-3,2.5433643E-2,8.14482E-2,2.365809E-2,1.2207188E-3,2.5090277E-2,6.868023E-5,1.6319973E-2,2.4334416E-2,-1.4190789E-3,3.1776298E-2,3.9299753E-2,4.8221376E-2,3.0950341E-2,1.3330986E-1,3.493849E-2,5.0326586E-3,4.812486E-2,9.196908E-2,5.403778E-2,7.741591E-2,4.9999367E-2,6.7702495E-2,2.4537401E-1,7.067251E-2,9.682022E-2,8.7652944E-2,6.5209284E-2,5.468619E-2,-2.3761926E-2,1.2798885E-1,2.2570854E-2],"split_indices":[5,5,5,6,8,5,5,8,0,8,0,6,8,8,5,7,2,1,8,2,5,5,6,8,2,2,0,2,8,8,0,7,8,8,8,0,2,0,2,0,5,5,5,2,5,5,8,8,6,7,0,8,6,0,8,0,8,5,6,0,6,0,0,0,0,0,0,0,0,0,0,0,0,0,0,0,0,0,0,0,0,0,0,0,0,0,0,0,0,0,0,0,0,0,0,0,0,0,0,0,0,0,0,0,0,0,0,0,0,0,0],"split_type":[0,0,0,0,0,0,0,0,0,0,0,0,0,0,0,0,0,0,0,0,0,0,0,0,0,0,0,0,0,0,0,0,0,0,0,0,0,0,0,0,0,0,0,0,0,0,0,0,0,0,0,0,0,0,0,0,0,0,0,0,0,0,0,0,0,0,0,0,0,0,0,0,0,0,0,0,0,0,0,0,0,0,0,0,0,0,0,0,0,0,0,0,0,0,0,0,0,0,0,0,0,0,0,0,0,0,0,0,0,0,0],"sum_hessian":[4.8962E4,4.5132E4,3.83E3,4.3275E4,1.857E3,2.113E3,1.717E3,4.3156E4,1.19E2,1.333E3,5.24E2,1.702E3,4.11E2,1.604E3,1.13E2,4.0226E4,2.93E3,4E0,1.15E2,2.05E2,1.128E3,2.56E2,2.68E2,1.693E3,9E0,3.61E2,5E1,6E0,1.598E3,7E1,4.3E1,3.9661E4,5.65E2,1.103E3,1.827E3,2E0,2E0,2.1E1,9.4E1,1E1,1.95E2,9.8E1,1.03E3,6E0,2.5E2,1.52E2,1.16E2,1.378E3,3.15E2,7E0,2E0,1.66E2,1.95E2,1E0,4.9E1,1E0,5E0,6.53E2,9.45E2,2E0,6.8E1,3.9541E4,1.2E2,5.64E2,1E0,9.28E2,1.75E2,1.708E3,1.19E2,1E0,1E0,2.9E1,6.5E1,4E0,6E0,1.36E2,5.9E1,1.5E1,8.3E1,1.018E3,1.2E1,4E0,2E0,2E1,2.3E2,9.3E1,5.9E1,1.11E2,5E0,2.05E2,1.173E3,2.93E2,2.2E1,5E0,2E0,6E0,1.6E2,2.1E1,1.74E2,3.9E1,1E1,1E0,4E0,5.97E2,5.6E1,9.18E2,2.7E1,1E0,1E0,6.7E1,1E0],"tree_param":{"num_deleted":"0","num_feature":"10","num_nodes":"111","size_leaf_vector":"1"}},{"base_weights":[-1.5622473E-4,-9.97951E-2,1.1729779E0,-1.0858254E-1,1.1385796E-1,8.010128E-1,1.6258093E0,-1.12012245E-1,-1.0422256E-1,2.5807109E-2,3.6328024E-1,7.539981E-1,1.0233992E0,1.5514132E0,2.6920304E0,-5.6439834E-3,-1.0985366E-1,-1.2120304E-1,-1.01904064E-1,2.8638607E-1,-1.9874698E-2,4.7155362E-1,2.5933993E-1,6.8040735E-1,8.331742E-1,9.689957E-1,1.3566914E0,1.8914728E-1,1.5394356E0,2.8311896E0,1.296437E0,1.9833159E-2,-1.1017086E-1,-1.3509546E-1,-1.0254294E-1,-1.0300103E-1,-4.9701482E-2,1.3146976E-1,3.1112835E-1,-2.7291605E-2,6.1950827E-1,7.936179E-1,3.9669666E-1,6.444788E-3,3.4500748E-1,5.68591E-1,7.11734E-1,7.930776E-1,9.1488534E-1,1.8735597E0,9.544791E-1,8.923802E-1,1.499571E0,1.3829528E0,1.6540487E0,2.4598913E0,1.7305349E-1,-7.534154E-2,1.991744E0,8.264452E-3,-5.6530223E-3,-5.4531167E-3,-5.7355445E-3,-6.1365734E-3,-8.18742E-3,-5.4222737E-3,-3.0654107E-4,-4.7611757E-3,-5.3620148E-3,-3.642688E-3,2.1907782E-2,2.105433E-2,-8.345587E-3,3.0728836E-2,1.5284813E-2,5.312232E-3,-2.9969874E-3,3.4709003E-2,1.3897585E-2,3.152671E-2,7.5948E-2,1.2926842E-2,2.4047427E-2,1.9363036E-2,-6.16659E-3,1.0775269E-2,2.198637E-2,3.1107232E-2,8.798308E-3,3.5258584E-2,5.173411E-2,4.2806365E-2,3.754101E-2,4.609657E-2,-2.4512475E-2,1.4420807E-3,1.23942606E-1,6.49253E-3,4.8231754E-2,5.3057905E-2,-3.2543313E-2,7.8359775E-2,2.8338825E-2,6.687619E-2,9.1510616E-2,7.8598104E-2,8.674284E-2,2.0100772E-2,1.2585129E-1,-2.032956E-2,1.4051097E-2,1.169619E-1,3.1642076E-2],"categories":[],"categories_nodes":[],"categories_segments":[],"categories_sizes":[],"default_left":[0,0,0,0,0,0,0,0,0,0,0,0,0,0,0,0,0,0,0,0,0,0,0,0,0,0,0,0,0,0,0,0,0,0,0,0,0,0,0,0,0,0,0,0,0,0,0,0,0,0,0,0,0,0,0,0,0,0,0,0,0,0,0,0,0,0,0,0,0,0,0,0,0,0,0,0,0,0,0,0,0,0,0,0,0,0,0,0,0,0,0,0,0,0,0,0,0,0,0,0,0,0,0,0,0,0,0,0,0,0,0,0,0],"id":14,"left_children":[1,3,5,7,9,11,13,15,17,19,21,23,25,27,29,-1,31,33,35,37,39,41,43,45,47,49,51,-1,53,55,57,59,61,63,65,67,69,71,73,75,77,79,81,83,85,87,89,91,93,95,97,99,101,103,105,107,-1,109,111,-1,-1,-1,-1,-1,-1,-1,-1,-1,-1,-1,-1,-1,-1,-1,-1,-1,-1,-1,-1,-1,-1,-1,-1,-1,-1,-1,-1,-1,-1,-1,-1,-1,-1,-1,-1,-1,-1,-1,-1,-1,-1,-1,-1,-1,-1,-1,-1,-1,-1,-1,-1,-1,-1],"loss_changes":[5.757523E3,8.5249176E1,6.481929E2,6.404419E-1,3.9390175E1,2.13833E1,1.3368652E2,3.326416E-2,7.4409485E-1,1.5801926E1,5.1445656E0,9.647217E0,5.3399353E0,3.766333E1,1.8081055E1,0E0,2.913742E-1,5.831642E-1,9.633179E-1,7.180271E-1,5.3756437E0,5.1819687E0,5.219019E0,2.7969055E0,2.0265503E0,2.4005737E0,1.9124985E0,0E0,2.6767334E1,1.5107422E1,1.1595747E1,3.666305E-1,2.2781372E-2,4.4646835E-1,5.610132E-1,5.358887E-1,3.9851723E0,2.5763571E0,9.23481E-2,4.880525E0,1.3861227E-1,4.0104866E0,2.0523796E0,3.1118634E0,2.1131954E0,4.2009506E0,7.7508545E-1,8.7854004E-1,3.1251373E0,4.3948803E0,2.5212097E0,4.3371944E0,1.3826218E0,1.1592163E1,3.4416504E0,6.8656616E0,0E0,7.0448744E-1,2.2973156E0,0E0,0E0,0E0,0E0,0E0,0E0,0E0,0E0,0E0,0E0,0E0,0E0,0E0,0E0,0E0,0E0,0E0,0E0,0E0,0E0,0E0,0E0,0E0,0E0,0E0,0E0,0E0,0E0,0E0,0E0,0E0,0E0,0E0,0E0,0E0,0E0,0E0,0E0,0E0,0E0,0E0,0E0,0E0,0E0,0E0,0E0,0E0,0E0,0E0,0E0,0E0,0E0,0E0,0E0],"parents":[2147483647,0,0,1,1,2,2,3,3,4,4,5,5,6,6,7,7,8,8,9,9,10,10,11,11,12,12,13,13,14,14,16,16,17,17,18,18,19,19,20,20,21,21,22,22,23,23,24,24,25,25,26,26,28,28,29,29,30,30,31,31,32,32,33,33,34,34,35,35,36,36,37,37,38,38,39,39,40,40,41,41,42,42,43,43,44,44,45,45,46,46,47,47,48,48,49,49,50,50,51,51,52,52,53,53,54,54,55,55,57,57,58,58],"right_children":[2,4,6,8,10,12,14,16,18,20,22,24,26,28,30,-1,32,34,36,38,40,42,44,46,48,50,52,-1,54,56,58,60,62,64,66,68,70,72,74,76,78,80,82,84,86,88,90,92,94,96,98,100,102,104,106,108,-1,110,112,-1,-1,-1,-1,-1,-1,-1,-1,-1,-1,-1,-1,-1,-1,-1,-1,-1,-1,-1,-1,-1,-1,-1,-1,-1,-1,-1,-1,-1,-1,-1,-1,-1,-1,-1,-1,-1,-1,-1,-1,-1,-1,-1,-1,-1,-1,-1,-1,-1,-1,-1,-1,-1,-1],"split_conditions":[1.26E0,5E-2,2.72E0,1.7857144E-2,2.5E-1,2.12E0,4.76E0,5.952381E-3,5E0,2.7E-1,1.3E1,1.7708334E0,2.75E0,2.0833333E-1,5E0,-5.6439834E-3,4E0,4E0,2.0833333E-1,2.2E-1,1E0,3.690476E-1,8.333333E-1,1.4211309E0,2.0104167E0,1.3571428E-2,2.37E0,1.8914728E-1,3.2679167E0,6.15E0,5.68E0,8E0,1.25E-3,8.416667E-2,5.0208336E-1,4.083333E-2,2.02E0,9.166666E-3,4E0,4.083333E-2,3.1547618E-1,2.2619048E-1,1E0,2.7E-1,1E0,5E0,5E0,1E1,3.3E0,1E1,6.0833335E-2,3.4166667E0,2.53E0,4E0,3.625E0,3.4291667E-1,1.7305349E-1,2E0,1.4E1,8.264452E-3,-5.6530223E-3,-5.4531167E-3,-5.7355445E-3,-6.1365734E-3,-8.18742E-3,-5.4222737E-3,-3.0654107E-4,-4.7611757E-3,-5.3620148E-3,-3.642688E-3,2.1907782E-2,2.105433E-2,-8.345587E-3,3.0728836E-2,1.5284813E-2,5.312232E-3,-2.9969874E-3,3.4709003E-2,1.3897585E-2,3.152671E-2,7.5948E-2,1.2926842E-2,2.4047427E-2,1.9363036E-2,-6.16659E-3,1.0775269E-2,2.198637E-2,3.1107232E-2,8.798308E-3,3.5258584E-2,5.173411E-2,4.2806365E-2,3.754101E-2,4.609657E-2,-2.4512475E-2,1.4420807E-3,1.23942606E-1,6.49253E-3,4.8231754E-2,5.3057905E-2,-3.2543313E-2,7.8359775E-2,2.8338825E-2,6.687619E-2,9.1510616E-2,7.8598104E-2,8.674284E-2,2.0100772E-2,1.2585129E-1,-2.032956E-2,1.4051097E-2,1.169619E-1,3.1642076E-2],"split_indices":[5,5,5,9,8,5,5,9,3,5,0,8,7,8,3,0,3,1,8,5,5,9,8,9,8,9,5,0,8,5,5,0,8,8,8,8,7,8,3,8,9,9,8,5,5,3,3,0,7,0,9,8,5,5,8,8,0,1,0,0,0,0,0,0,0,0,0,0,0,0,0,0,0,0,0,0,0,0,0,0,0,0,0,0,0,0,0,0,0,0,0,0,0,0,0,0,0,0,0,0,0,0,0,0,0,0,0,0,0,0,0,0,0],"split_type":[0,0,0,0,0,0,0,0,0,0,0,0,0,0,0,0,0,0,0,0,0,0,0,0,0,0,0,0,0,0,0,0,0,0,0,0,0,0,0,0,0,0,0,0,0,0,0,0,0,0,0,0,0,0,0,0,0,0,0,0,0,0,0,0,0,0,0,0,0,0,0,0,0,0,0,0,0,0,0,0,0,0,0,0,0,0,0,0,0,0,0,0,0,0,0,0,0,0,0,0,0,0,0,0,0,0,0,0,0,0,0,0,0],"sum_hessian":[4.9254E4,4.5399E4,3.855E3,4.3606E4,1.793E3,2.118E3,1.737E3,2.4393E4,1.9213E4,1.326E3,4.67E2,1.752E3,3.66E2,1.626E3,1.11E2,1.7364E4,7.029E3,2.302E3,1.6911E4,1.97E2,1.129E3,2.27E2,2.4E2,9.13E2,8.39E2,3.18E2,4.8E1,7E0,1.619E3,1E2,1.1E1,1.7E1,7.012E3,1.316E3,9.86E2,1.6562E4,3.49E2,2.8E1,1.69E2,1.117E3,1.2E1,4.1E1,1.86E2,6.1E1,1.79E2,2.04E2,7.09E2,5.7E2,2.69E2,3E0,3.15E2,1.3E1,3.5E1,6.9E2,9.29E2,6.6E1,3.4E1,4E0,7E0,8E0,9E0,5.656E3,1.356E3,9.23E2,3.93E2,9.29E2,5.7E1,5.851E3,1.0711E4,3.34E2,1.5E1,1.4E1,1.4E1,1E0,1.68E2,2.19E2,8.98E2,9E0,3E0,3.5E1,6E0,7.2E1,1.14E2,1.5E1,4.6E1,7.7E1,1.02E2,1.79E2,2.5E1,6.98E2,1.1E1,2.21E2,3.49E2,2.68E2,1E0,1E0,2E0,4E0,3.11E2,1.2E1,1E0,3.2E1,3E0,6.3E2,6E1,4.71E2,4.58E2,2E0,6.4E1,2E0,2E0,5E0,2E0],"tree_param":{"num_deleted":"0","num_feature":"10","num_nodes":"113","size_leaf_vector":"1"}},{"base_weights":[3.3439172E-4,-9.539111E-2,1.1200259E0,-1.035423E-1,1.02649555E-1,7.560204E-1,1.5360453E0,-1.0323519E-1,-1.8552734E-1,3.0385818E-2,3.203448E-1,7.166712E-1,9.6769553E-1,1.4490069E0,2.3700445E0,-1.0642805E-1,-9.7728744E-2,-2.0876431E-1,-2.9222606E-2,1.5339138E-1,-5.9730712E-2,2.166803E-1,4.444906E-1,7.11445E-1,2.1137025E0,1.7512853E0,9.394789E-1,1.215221E0,1.5246227E0,2.1007934E0,1.5121268E-1,-1.0646632E-1,-6.367071E-2,-9.890874E-2,-7.685999E-2,-1.6792797E-1,-2.3171142E-1,-2.3931916E-1,4.5517275E-1,7.976521E-2,3.159998E-1,-7.4631914E-2,4.8026636E-1,6.968391E-1,1.7090246E-1,4.3201715E-1,7.379152E-2,-6.588395E-3,7.1685064E-1,1.2435211E-1,6.1750947E-3,5.9475735E-2,2.46785E0,8.819397E-1,1.3086969E0,1.679213E-1,1.2252492E0,2.2085805E-1,1.5186895E0,2.1882277E0,1.3793122E0,-5.3716693E-3,-5.2399174E-3,1.2263472E-2,-4.9098353E-3,-4.815849E-3,-5.6620496E-3,-4.6355356E-3,-9.233256E-4,-1.0143036E-3,-8.810751E-3,-8.830456E-3,-1.2554078E-2,-1.2415378E-2,-2.6123335E-3,-6.927529E-3,6.4649366E-2,1.4237003E-2,-5.872414E-3,8.922304E-2,1.40213E-2,2.5979986E-2,-4.16412E-3,3.0497482E-2,-1.1168747E-2,6.0839064E-2,1.6122863E-4,4.9064434E-3,1.5078899E-2,2.2049807E-2,-4.079449E-4,3.19019E-2,-1.2019953E-2,3.411814E-2,3.9905246E-2,6.0892846E-3,-3.1863532E-3,4.877578E-3,1.4233206E-1,-1.2699318E-2,4.4563007E-2,5.3017985E-2,8.259507E-2,-1.10902395E-2,2.5083682E-2,5.6702163E-2,6.7376725E-2,5.193864E-2,7.682138E-2,8.7684825E-2,1.1457511E-1,-2.8206958E-2,7.732425E-2],"categories":[],"categories_nodes":[],"categories_segments":[],"categories_sizes":[],"default_left":[0,0,0,0,0,0,0,0,0,0,0,0,0,0,0,0,0,0,0,0,0,0,0,0,0,0,0,0,0,0,0,0,0,0,0,0,0,0,0,0,0,0,0,0,0,0,0,0,0,0,0,0,0,0,0,0,0,0,0,0,0,0,0,0,0,0,0,0,0,0,0,0,0,0,0,0,0,0,0,0,0,0,0,0,0,0,0,0,0,0,0,0,0,0,0,0,0,0,0,0,0,0,0,0,0,0,0,0,0,0,0,0,0],"id":15,"left_children":[1,3,5,7,9,11,13,15,17,19,21,23,25,27,29,31,33,35,37,39,41,43,45,47,49,51,53,55,57,59,-1,61,63,65,67,69,71,73,75,77,79,81,83,85,87,89,-1,91,93,-1,-1,95,97,99,101,103,105,-1,107,109,111,-1,-1,-1,-1,-1,-1,-1,-1,-1,-1,-1,-1,-1,-1,-1,-1,-1,-1,-1,-1,-1,-1,-1,-1,-1,-1,-1,-1,-1,-1,-1,-1,-1,-1,-1,-1,-1,-1,-1,-1,-1,-1,-1,-1,-1,-1,-1,-1,-1,-1,-1,-1],"loss_changes":[5.266652E3,7.308368E1,5.8488574E2,1.075531E0,2.8149605E1,1.6514648E1,1.2759033E2,7.512207E-1,5.7865906E-1,1.4918263E1,5.64349E0,1.1244141E1,5.452118E0,2.7086182E1,2.3415466E1,3.805542E-2,3.8420105E-1,9.227991E-2,2.347867E0,6.786997E0,6.2880545E0,5.266164E0,1.9610252E0,6.762329E0,4.1509743E0,1.1976133E1,5.4740906E0,4.0477905E0,1.4452393E1,4.7408447E0,0E0,3.2928467E-2,3.120792E-1,5.483551E-1,7.9058313E-1,6.2495112E-2,4.851532E-2,1.393044E-2,3.6611545E0,1.5919998E1,8.74585E0,3.9345527E0,2.0525084E0,7.5695057E0,2.1100945E0,7.980156E-1,0E0,2.263471E0,4.2977905E0,0E0,0E0,3.846809E-2,6.0072403E0,3.1166992E0,1.657608E0,7.616335E-1,2.9442139E0,0E0,8.891846E0,8.280029E-1,6.0706997E0,0E0,0E0,0E0,0E0,0E0,0E0,0E0,0E0,0E0,0E0,0E0,0E0,0E0,0E0,0E0,0E0,0E0,0E0,0E0,0E0,0E0,0E0,0E0,0E0,0E0,0E0,0E0,0E0,0E0,0E0,0E0,0E0,0E0,0E0,0E0,0E0,0E0,0E0,0E0,0E0,0E0,0E0,0E0,0E0,0E0,0E0,0E0,0E0,0E0,0E0,0E0,0E0],"parents":[2147483647,0,0,1,1,2,2,3,3,4,4,5,5,6,6,7,7,8,8,9,9,10,10,11,11,12,12,13,13,14,14,15,15,16,16,17,17,18,18,19,19,20,20,21,21,22,22,23,23,24,24,25,25,26,26,27,27,28,28,29,29,31,31,32,32,33,33,34,34,35,35,36,36,37,37,38,38,39,39,40,40,41,41,42,42,43,43,44,44,45,45,47,47,48,48,51,51,52,52,53,53,54,54,55,55,56,56,58,58,59,59,60,60],"right_children":[2,4,6,8,10,12,14,16,18,20,22,24,26,28,30,32,34,36,38,40,42,44,46,48,50,52,54,56,58,60,-1,62,64,66,68,70,72,74,76,78,80,82,84,86,88,90,-1,92,94,-1,-1,96,98,100,102,104,106,-1,108,110,112,-1,-1,-1,-1,-1,-1,-1,-1,-1,-1,-1,-1,-1,-1,-1,-1,-1,-1,-1,-1,-1,-1,-1,-1,-1,-1,-1,-1,-1,-1,-1,-1,-1,-1,-1,-1,-1,-1,-1,-1,-1,-1,-1,-1,-1,-1,-1,-1,-1,-1,-1,-1],"split_conditions":[1.26E0,5E-2,2.52E0,2.72E0,1.489881E-1,2.12E0,4.29E0,2.3809524E-2,2E1,5.2E-1,1.25E0,4.75E0,2.559524E-1,3.02E0,6.15E0,9.8E-1,4.8E-1,4.7619048E-1,3E0,4.7E-1,1E0,3.1547618E-1,3.1693451E0,1.489881E-1,1.65E0,6E0,2.54E0,1.9863096E-1,1.9523809E-2,2.2E1,1.5121268E-1,5.952381E-3,2E0,1.489881E-1,1.489881E-1,1E0,3E0,5.53E0,3.3333334E-1,2.7E-1,5.952381E-3,5.952381E-3,4.7E-1,1.1E1,1E0,2.0119047E0,7.379152E-2,6E0,1.8301786E0,1.2435211E-1,6.1750947E-3,2.23E0,1E0,3.690476E-1,3.25E0,5E0,3.02E0,2.2085805E-1,4.7619048E-1,2E-2,2.7380952E-1,-5.3716693E-3,-5.2399174E-3,1.2263472E-2,-4.9098353E-3,-4.815849E-3,-5.6620496E-3,-4.6355356E-3,-9.233256E-4,-1.0143036E-3,-8.810751E-3,-8.830456E-3,-1.2554078E-2,-1.2415378E-2,-2.6123335E-3,-6.927529E-3,6.4649366E-2,1.4237003E-2,-5.872414E-3,8.922304E-2,1.40213E-2,2.5979986E-2,-4.16412E-3,3.0497482E-2,-1.1168747E-2,6.0839064E-2,1.6122863E-4,4.9064434E-3,1.5078899E-2,2.2049807E-2,-4.079449E-4,3.19019E-2,-1.2019953E-2,3.411814E-2,3.9905246E-2,6.0892846E-3,-3.1863532E-3,4.877578E-3,1.4233206E-1,-1.2699318E-2,4.4563007E-2,5.3017985E-2,8.259507E-2,-1.10902395E-2,2.5083682E-2,5.6702163E-2,6.7376725E-2,5.193864E-2,7.682138E-2,8.7684825E-2,1.1457511E-1,-2.8206958E-2,7.732425E-2],"split_indices":[5,5,5,6,9,5,5,9,0,5,6,6,9,5,5,7,6,9,1,5,5,9,9,9,5,2,7,9,9,0,0,9,0,9,9,0,2,6,9,5,9,9,6,0,5,9,0,0,9,0,0,5,0,9,6,0,6,0,9,6,9,0,0,0,0,0,0,0,0,0,0,0,0,0,0,0,0,0,0,0,0,0,0,0,0,0,0,0,0,0,0,0,0,0,0,0,0,0,0,0,0,0,0,0,0,0,0,0,0,0,0,0,0],"split_type":[0,0,0,0,0,0,0,0,0,0,0,0,0,0,0,0,0,0,0,0,0,0,0,0,0,0,0,0,0,0,0,0,0,0,0,0,0,0,0,0,0,0,0,0,0,0,0,0,0,0,0,0,0,0,0,0,0,0,0,0,0,0,0,0,0,0,0,0,0,0,0,0,0,0,0,0,0,0,0,0,0,0,0,0,0,0,0,0,0,0,0,0,0,0,0,0,0,0,0,0,0,0,0,0,0,0,0,0,0,0,0,0,0],"sum_hessian":[4.9135E4,4.5266E4,3.869E3,4.3477E4,1.789E3,2.065E3,1.804E3,4.3317E4,1.6E2,1.344E3,4.45E2,1.745E3,3.2E2,1.636E3,1.68E2,2.7407E4,1.591E4,1.39E2,2.1E1,5.68E2,7.76E2,2.44E2,2.01E2,1.74E3,5E0,9E0,3.11E2,4.04E2,1.232E3,1.22E2,4.6E1,2.7381E4,2.6E1,1.5055E4,8.55E2,5.3E1,8.6E1,1.5E1,6E0,3.92E2,1.76E2,7.56E2,2E1,2E1,2.24E2,2E2,1E0,1.3E1,1.727E3,4E0,1E0,3E0,6E0,2.72E2,3.9E1,4E0,4E2,1E0,1.231E3,1.07E2,1.5E1,1.7292E4,1.0089E4,2E0,2.4E1,1.2756E4,2.299E3,6.72E2,1.83E2,3E0,5E1,2.5E1,6.1E1,1.4E1,1E0,4E0,2E0,1.92E2,2E2,3E0,1.73E2,1E1,7.46E2,1.7E1,3E0,1.1E1,9E0,1.45E2,7.9E1,1.96E2,4E0,3E0,1E1,1.219E3,5.08E2,2E0,1E0,1E0,5E0,2E0,2.7E2,2.5E1,1.4E1,2E0,2E0,2.35E2,1.65E2,4.6E1,1.185E3,2.4E1,8.3E1,1E0,1.4E1],"tree_param":{"num_deleted":"0","num_feature":"10","num_nodes":"113","size_leaf_vector":"1"}},{"base_weights":[3.882964E-4,-8.943686E-2,1.0711881E0,-9.804237E-2,1.1449394E-1,7.323888E-1,1.4902233E0,-9.7936936E-2,-2.1618077E-1,3.1112432E-1,1.3659046E-2,6.839453E-1,9.4127136E-1,1.4084662E0,2.555635E0,-1.04741625E-1,-9.648279E-2,-1.5257719E-1,-1.4704982E-2,1.1555879E0,2.9123315E-1,2.4780811E-1,-2.752819E-2,5.7951194E-1,7.2305113E-1,9.005097E-1,1.253058E0,3.5373151E0,1.398117E0,2.6748443E0,1.1312127E0,-1.0289256E-1,-1.322049E-1,-9.702072E-2,-2.7530564E-2,-6.331052E-3,-1.2210681E-2,2.9242477E0,4.0738547E-1,1.7583923E-1,4.083374E-1,5.533699E-2,1.3696352E-2,1.5786694E-2,-1.1534398E-1,1.4818733E0,5.7058024E-1,6.975079E-1,8.1125426E-1,8.110343E-1,1.0129048E0,-1.3967544E-2,1.2961951E0,6.636744E-2,4.155832E0,1.3234408E0,1.6038414E0,2.2933362E0,1.5687165E-1,-1.4835611E-1,1.8835887E0,-5.158035E-3,2.0776782E-3,-3.058436E-3,-7.711198E-3,-4.8931087E-3,-4.1980753E-3,3.9897086E-3,-5.3926026E-3,1.8079855E-1,2.1226961E-2,4.785535E-2,8.943995E-3,1.7432269E-2,3.2138184E-3,2.0728618E-2,-7.99043E-3,1.4273353E-2,-7.182257E-3,-5.9477063E-3,3.0724367E-3,-5.842636E-3,9.978314E-3,-1.1076566E-2,1.0617592E-1,1.876394E-2,2.9728016E-2,3.4292754E-2,4.2108197E-2,4.0894907E-2,-2.4897292E-2,4.1011766E-2,-2.572901E-2,7.186686E-2,4.847996E-2,3.7531078E-2,6.919318E-2,5.9863694E-2,2.2980766E-1,5.940727E-2,7.1596734E-2,9.70699E-3,8.05099E-2,1.6507918E-2,1.17566966E-1,-1.7943991E-2,1.7343467E-2,1.06317356E-1,1.0675973E-2],"categories":[],"categories_nodes":[],"categories_segments":[],"categories_sizes":[],"default_left":[0,0,0,0,0,0,0,0,0,0,0,0,0,0,0,0,0,0,0,0,0,0,0,0,0,0,0,0,0,0,0,0,0,0,0,0,0,0,0,0,0,0,0,0,0,0,0,0,0,0,0,0,0,0,0,0,0,0,0,0,0,0,0,0,0,0,0,0,0,0,0,0,0,0,0,0,0,0,0,0,0,0,0,0,0,0,0,0,0,0,0,0,0,0,0,0,0,0,0,0,0,0,0,0,0,0,0,0,0],"id":16,"left_children":[1,3,5,7,9,11,13,15,17,19,21,23,25,27,29,31,33,35,-1,37,39,41,43,45,47,49,51,53,55,57,59,61,63,65,67,-1,-1,69,71,73,75,77,-1,79,81,83,85,87,89,91,93,-1,95,-1,97,99,101,103,-1,105,107,-1,-1,-1,-1,-1,-1,-1,-1,-1,-1,-1,-1,-1,-1,-1,-1,-1,-1,-1,-1,-1,-1,-1,-1,-1,-1,-1,-1,-1,-1,-1,-1,-1,-1,-1,-1,-1,-1,-1,-1,-1,-1,-1,-1,-1,-1,-1,-1],"loss_changes":[4.731328E3,7.965509E1,5.393838E2,5.212097E-1,3.643815E1,2.0677002E1,1.4456592E2,4.204712E-1,1.4345193E-1,1.0128216E1,1.1733869E1,6.5808105E0,3.8789062E0,2.990918E1,1.7350708E1,3.748169E-1,1.3274231E0,2.3783624E-2,0E0,1.7335125E1,8.1712E0,8.997803E-1,3.9386826E0,2.9586182E0,2.2346191E0,2.7184448E0,3.2045593E0,4.0520706E0,2.2088867E1,1.2217712E1,1.0869328E1,2.8203583E-1,7.397938E-1,3.828125E-1,2.4137201E0,0E0,0E0,5.381302E0,1.2105515E0,5.934724E0,1.1360474E0,1.0942167E0,0E0,4.2771726E0,1.8580866E-1,4.842351E0,1.9733582E0,1.0591736E0,2.7818909E0,2.8736572E0,1.400177E0,0E0,9.700775E-1,0E0,1.0107193E0,1.5355469E1,3.406128E0,6.511383E0,0E0,6.457679E-1,2.3839474E0,0E0,0E0,0E0,0E0,0E0,0E0,0E0,0E0,0E0,0E0,0E0,0E0,0E0,0E0,0E0,0E0,0E0,0E0,0E0,0E0,0E0,0E0,0E0,0E0,0E0,0E0,0E0,0E0,0E0,0E0,0E0,0E0,0E0,0E0,0E0,0E0,0E0,0E0,0E0,0E0,0E0,0E0,0E0,0E0,0E0,0E0,0E0,0E0],"parents":[2147483647,0,0,1,1,2,2,3,3,4,4,5,5,6,6,7,7,8,8,9,9,10,10,11,11,12,12,13,13,14,14,15,15,16,16,17,17,19,19,20,20,21,21,22,22,23,23,24,24,25,25,26,26,27,27,28,28,29,29,30,30,31,31,32,32,33,33,34,34,37,37,38,38,39,39,40,40,41,41,43,43,44,44,45,45,46,46,47,47,48,48,49,49,50,50,52,52,54,54,55,55,56,56,57,57,59,59,60,60],"right_children":[2,4,6,8,10,12,14,16,18,20,22,24,26,28,30,32,34,36,-1,38,40,42,44,46,48,50,52,54,56,58,60,62,64,66,68,-1,-1,70,72,74,76,78,-1,80,82,84,86,88,90,92,94,-1,96,-1,98,100,102,104,-1,106,108,-1,-1,-1,-1,-1,-1,-1,-1,-1,-1,-1,-1,-1,-1,-1,-1,-1,-1,-1,-1,-1,-1,-1,-1,-1,-1,-1,-1,-1,-1,-1,-1,-1,-1,-1,-1,-1,-1,-1,-1,-1,-1,-1,-1,-1,-1,-1,-1],"split_conditions":[1.27E0,5E-2,2.75E0,2.4895833E0,6E0,2.12E0,4.76E0,5E0,4E0,2E-2,2.7E-1,1.7083334E0,2.7483332E0,3.4291667E-1,5E0,1.45E-1,2.5E-1,4.0308332E0,-1.4704982E-2,1E1,1E0,2.2E-1,7.7E-1,8.3333336E-2,2.0104167E0,1.8E1,1E0,1.8E1,3.98E0,6.15E0,5.68E0,1.2416667E-1,1.2E1,7.208333E-2,1.1E1,-6.331052E-3,-1.2210681E-2,4E0,1E0,1E1,2.7483332E0,9.166666E-3,1.3696352E-2,4.5E-1,1E0,8E0,8.333333E-1,2.02E0,3.23E0,2.375E0,1.4166666E0,-1.3967544E-2,2.37E0,6.636744E-2,9E0,3.1883333E0,5.0208336E-1,3.4291667E-1,1.5687165E-1,3E0,1.4E1,-5.158035E-3,2.0776782E-3,-3.058436E-3,